digraph Tree {
node [shape=box] ;
0 [label="Primary_Offence_PROPERTY <= 0.5\nentropy = 0.093\nsamples = 20092\nvalue = [19853, 239]"] ;
1 [label="Primary_Offence_THEFT <= 0.5\nentropy = 0.074\nsamples = 20004\nvalue = [19823, 181]"] ;
0 -> 1 [labeldistance=2.5, labelangle=45, headlabel="True"] ;
2 [label="Premises_Type_Outside <= 0.5\nentropy = 0.171\nsamples = 1772\nvalue = [1727, 45]"] ;
1 -> 2 ;
3 [label="Occurrence_Hour <= 19.5\nentropy = 0.126\nsamples = 1675\nvalue = [1646, 29]"] ;
2 -> 3 ;
4 [label="Report_Lag <= 2.5\nentropy = 0.148\nsamples = 1369\nvalue = [1340, 29]"] ;
3 -> 4 ;
5 [label="Report_Hour <= 10.5\nentropy = 0.203\nsamples = 790\nvalue = [765, 25]"] ;
4 -> 5 ;
6 [label="Occurrence_Month_March <= 0.5\nentropy = 0.327\nsamples = 267\nvalue = [251, 16]"] ;
5 -> 6 ;
7 [label="Primary_Offence_ASSAULT <= 0.5\nentropy = 0.288\nsamples = 258\nvalue = [245, 13]"] ;
6 -> 7 ;
8 [label="NeighbourhoodName_Rosedale-Moore Park (98) <= 0.5\nentropy = 0.257\nsamples = 254\nvalue = [243, 11]"] ;
7 -> 8 ;
9 [label="Bike_Colour_RED <= 0.5\nentropy = 0.224\nsamples = 250\nvalue = [241, 9]"] ;
8 -> 9 ;
10 [label="entropy = 0.17\nsamples = 238\nvalue = [232, 6]"] ;
9 -> 10 ;
11 [label="entropy = 0.811\nsamples = 12\nvalue = [9, 3]"] ;
9 -> 11 ;
12 [label="entropy = 1.0\nsamples = 4\nvalue = [2, 2]"] ;
8 -> 12 ;
13 [label="entropy = 1.0\nsamples = 4\nvalue = [2, 2]"] ;
7 -> 13 ;
14 [label="entropy = 0.918\nsamples = 9\nvalue = [6, 3]"] ;
6 -> 14 ;
15 [label="NeighbourhoodName_Humber Summit (21) <= 0.5\nentropy = 0.125\nsamples = 523\nvalue = [514, 9]"] ;
5 -> 15 ;
16 [label="Occurrence_Hour <= 15.5\nentropy = 0.114\nsamples = 522\nvalue = [514, 8]"] ;
15 -> 16 ;
17 [label="NeighbourhoodName_Palmerston-Little Italy (80) <= 0.5\nentropy = 0.061\nsamples = 418\nvalue = [415, 3]"] ;
16 -> 17 ;
18 [label="NeighbourhoodName_Birchcliffe-Cliffside (122) <= 0.5\nentropy = 0.044\nsamples = 416\nvalue = [414, 2]"] ;
17 -> 18 ;
19 [label="entropy = 0.025\nsamples = 409\nvalue = [408, 1]"] ;
18 -> 19 ;
20 [label="entropy = 0.592\nsamples = 7\nvalue = [6, 1]"] ;
18 -> 20 ;
21 [label="entropy = 1.0\nsamples = 2\nvalue = [1, 1]"] ;
17 -> 21 ;
22 [label="NeighbourhoodName_Annex (95) <= 0.5\nentropy = 0.278\nsamples = 104\nvalue = [99, 5]"] ;
16 -> 22 ;
23 [label="NeighbourhoodName_Downsview-Roding-CFB (26) <= 0.5\nentropy = 0.191\nsamples = 102\nvalue = [99, 3]"] ;
22 -> 23 ;
24 [label="entropy = 0.14\nsamples = 101\nvalue = [99, 2]"] ;
23 -> 24 ;
25 [label="entropy = 0.0\nsamples = 1\nvalue = [0, 1]"] ;
23 -> 25 ;
26 [label="entropy = 0.0\nsamples = 2\nvalue = [0, 2]"] ;
22 -> 26 ;
27 [label="entropy = 0.0\nsamples = 1\nvalue = [0, 1]"] ;
15 -> 27 ;
28 [label="Report_DayOfMonth <= 3.5\nentropy = 0.06\nsamples = 579\nvalue = [575, 4]"] ;
4 -> 28 ;
29 [label="Bike_Speed <= 19.0\nentropy = 0.261\nsamples = 68\nvalue = [65, 3]"] ;
28 -> 29 ;
30 [label="entropy = 0.0\nsamples = 46\nvalue = [46, 0]"] ;
29 -> 30 ;
31 [label="Report_Lag <= 10.5\nentropy = 0.575\nsamples = 22\nvalue = [19, 3]"] ;
29 -> 31 ;
32 [label="entropy = 0.845\nsamples = 11\nvalue = [8, 3]"] ;
31 -> 32 ;
33 [label="entropy = 0.0\nsamples = 11\nvalue = [11, 0]"] ;
31 -> 33 ;
34 [label="Report_DayOfYear <= 321.5\nentropy = 0.02\nsamples = 511\nvalue = [510, 1]"] ;
28 -> 34 ;
35 [label="entropy = 0.0\nsamples = 473\nvalue = [473, 0]"] ;
34 -> 35 ;
36 [label="Report_DayOfYear <= 323.0\nentropy = 0.176\nsamples = 38\nvalue = [37, 1]"] ;
34 -> 36 ;
37 [label="entropy = 1.0\nsamples = 2\nvalue = [1, 1]"] ;
36 -> 37 ;
38 [label="entropy = 0.0\nsamples = 36\nvalue = [36, 0]"] ;
36 -> 38 ;
39 [label="entropy = 0.0\nsamples = 306\nvalue = [306, 0]"] ;
3 -> 39 ;
40 [label="Cost_of_Bike <= 675.0\nentropy = 0.646\nsamples = 97\nvalue = [81, 16]"] ;
2 -> 40 ;
41 [label="NeighbourhoodName_Corso Italia-Davenport (92) <= 0.5\nentropy = 0.156\nsamples = 44\nvalue = [43, 1]"] ;
40 -> 41 ;
42 [label="entropy = 0.0\nsamples = 43\nvalue = [43, 0]"] ;
41 -> 42 ;
43 [label="entropy = 0.0\nsamples = 1\nvalue = [0, 1]"] ;
41 -> 43 ;
44 [label="Report_Month_March <= 0.5\nentropy = 0.86\nsamples = 53\nvalue = [38, 15]"] ;
40 -> 44 ;
45 [label="Division <= 54.5\nentropy = 0.795\nsamples = 50\nvalue = [38, 12]"] ;
44 -> 45 ;
46 [label="Bike_Speed <= 19.5\nentropy = 0.705\nsamples = 47\nvalue = [38, 9]"] ;
45 -> 46 ;
47 [label="Bike_Type_EL <= 0.5\nentropy = 0.822\nsamples = 35\nvalue = [26, 9]"] ;
46 -> 47 ;
48 [label="Report_DayOfMonth <= 3.5\nentropy = 0.746\nsamples = 33\nvalue = [26, 7]"] ;
47 -> 48 ;
49 [label="entropy = 0.811\nsamples = 4\nvalue = [1, 3]"] ;
48 -> 49 ;
50 [label="Primary_Offence_FTC <= 0.5\nentropy = 0.579\nsamples = 29\nvalue = [25, 4]"] ;
48 -> 50 ;
51 [label="entropy = 0.391\nsamples = 26\nvalue = [24, 2]"] ;
50 -> 51 ;
52 [label="entropy = 0.918\nsamples = 3\nvalue = [1, 2]"] ;
50 -> 52 ;
53 [label="entropy = 0.0\nsamples = 2\nvalue = [0, 2]"] ;
47 -> 53 ;
54 [label="entropy = 0.0\nsamples = 12\nvalue = [12, 0]"] ;
46 -> 54 ;
55 [label="entropy = 0.0\nsamples = 3\nvalue = [0, 3]"] ;
45 -> 55 ;
56 [label="entropy = 0.0\nsamples = 3\nvalue = [0, 3]"] ;
44 -> 56 ;
57 [label="Cost_of_Bike <= 657.0\nentropy = 0.063\nsamples = 18232\nvalue = [18096, 136]"] ;
1 -> 57 ;
58 [label="NeighbourhoodName_Morningside (135) <= 0.5\nentropy = 0.043\nsamples = 9492\nvalue = [9447, 45]"] ;
57 -> 58 ;
59 [label="Report_DayOfYear <= 160.5\nentropy = 0.042\nsamples = 9489\nvalue = [9446, 43]"] ;
58 -> 59 ;
60 [label="Bike_Colour_BLK <= 0.5\nentropy = 0.075\nsamples = 2413\nvalue = [2391, 22]"] ;
59 -> 60 ;
61 [label="Occurrence_DayOfMonth <= 4.5\nentropy = 0.098\nsamples = 1742\nvalue = [1720, 22]"] ;
60 -> 61 ;
62 [label="NeighbourhoodName_High Park-Swansea (87) <= 0.5\nentropy = 0.237\nsamples = 257\nvalue = [247, 10]"] ;
61 -> 62 ;
63 [label="NeighbourhoodName_York University Heights (27) <= 0.5\nentropy = 0.201\nsamples = 255\nvalue = [247, 8]"] ;
62 -> 63 ;
64 [label="NeighbourhoodName_Downsview-Roding-CFB (26) <= 0.5\nentropy = 0.143\nsamples = 247\nvalue = [242, 5]"] ;
63 -> 64 ;
65 [label="entropy = 0.12\nsamples = 246\nvalue = [242, 4]"] ;
64 -> 65 ;
66 [label="entropy = 0.0\nsamples = 1\nvalue = [0, 1]"] ;
64 -> 66 ;
67 [label="entropy = 0.954\nsamples = 8\nvalue = [5, 3]"] ;
63 -> 67 ;
68 [label="entropy = 0.0\nsamples = 2\nvalue = [0, 2]"] ;
62 -> 68 ;
69 [label="Bike_Type_SC <= 0.5\nentropy = 0.068\nsamples = 1485\nvalue = [1473, 12]"] ;
61 -> 69 ;
70 [label="Location_Type_Parking Lots (Apt., Commercial Or Non-Commercial) <= 0.5\nentropy = 0.059\nsamples = 1476\nvalue = [1466, 10]"] ;
69 -> 70 ;
71 [label="NeighbourhoodName_Rouge (131) <= 0.5\nentropy = 0.036\nsamples = 1317\nvalue = [1312, 5]"] ;
70 -> 71 ;
72 [label="entropy = 0.03\nsamples = 1314\nvalue = [1310, 4]"] ;
71 -> 72 ;
73 [label="entropy = 0.918\nsamples = 3\nvalue = [2, 1]"] ;
71 -> 73 ;
74 [label="NeighbourhoodName_Agincourt North (129) <= 0.5\nentropy = 0.202\nsamples = 159\nvalue = [154, 5]"] ;
70 -> 74 ;
75 [label="entropy = 0.17\nsamples = 158\nvalue = [154, 4]"] ;
74 -> 75 ;
76 [label="entropy = 0.0\nsamples = 1\nvalue = [0, 1]"] ;
74 -> 76 ;
77 [label="entropy = 0.764\nsamples = 9\nvalue = [7, 2]"] ;
69 -> 77 ;
78 [label="entropy = 0.0\nsamples = 671\nvalue = [671, 0]"] ;
60 -> 78 ;
79 [label="Occurrence_DayOfMonth <= 29.5\nentropy = 0.029\nsamples = 7076\nvalue = [7055, 21]"] ;
59 -> 79 ;
80 [label="NeighbourhoodName_Milliken (130) <= 0.5\nentropy = 0.025\nsamples = 6809\nvalue = [6792, 17]"] ;
79 -> 80 ;
81 [label="NeighbourhoodName_Lansing-Westgate (38) <= 0.5\nentropy = 0.024\nsamples = 6803\nvalue = [6787, 16]"] ;
80 -> 81 ;
82 [label="NeighbourhoodName_Kennedy Park (124) <= 0.5\nentropy = 0.023\nsamples = 6797\nvalue = [6782, 15]"] ;
81 -> 82 ;
83 [label="Bike_Type_OT <= 0.5\nentropy = 0.021\nsamples = 6787\nvalue = [6773, 14]"] ;
82 -> 83 ;
84 [label="entropy = 0.015\nsamples = 5802\nvalue = [5794, 8]"] ;
83 -> 84 ;
85 [label="entropy = 0.054\nsamples = 985\nvalue = [979, 6]"] ;
83 -> 85 ;
86 [label="entropy = 0.469\nsamples = 10\nvalue = [9, 1]"] ;
82 -> 86 ;
87 [label="entropy = 0.65\nsamples = 6\nvalue = [5, 1]"] ;
81 -> 87 ;
88 [label="entropy = 0.65\nsamples = 6\nvalue = [5, 1]"] ;
80 -> 88 ;
89 [label="NeighbourhoodName_Kensington-Chinatown (78) <= 0.5\nentropy = 0.112\nsamples = 267\nvalue = [263, 4]"] ;
79 -> 89 ;
90 [label="Occurrence_DayOfWeek_Sunday <= 0.5\nentropy = 0.066\nsamples = 256\nvalue = [254, 2]"] ;
89 -> 90 ;
91 [label="entropy = 0.0\nsamples = 215\nvalue = [215, 0]"] ;
90 -> 91 ;
92 [label="NeighbourhoodName_Palmerston-Little Italy (80) <= 0.5\nentropy = 0.281\nsamples = 41\nvalue = [39, 2]"] ;
90 -> 92 ;
93 [label="NeighbourhoodName_Newtonbrook West (36) <= 0.5\nentropy = 0.169\nsamples = 40\nvalue = [39, 1]"] ;
92 -> 93 ;
94 [label="entropy = 0.0\nsamples = 39\nvalue = [39, 0]"] ;
93 -> 94 ;
95 [label="entropy = 0.0\nsamples = 1\nvalue = [0, 1]"] ;
93 -> 95 ;
96 [label="entropy = 0.0\nsamples = 1\nvalue = [0, 1]"] ;
92 -> 96 ;
97 [label="entropy = 0.684\nsamples = 11\nvalue = [9, 2]"] ;
89 -> 97 ;
98 [label="entropy = 0.918\nsamples = 3\nvalue = [1, 2]"] ;
58 -> 98 ;
99 [label="Report_Month_April <= 0.5\nentropy = 0.084\nsamples = 8740\nvalue = [8649, 91]"] ;
57 -> 99 ;
100 [label="Occurrence_DayOfWeek_Friday <= 0.5\nentropy = 0.076\nsamples = 8190\nvalue = [8114, 76]"] ;
99 -> 100 ;
101 [label="Cost_of_Bike <= 679.5\nentropy = 0.064\nsamples = 6980\nvalue = [6927, 53]"] ;
100 -> 101 ;
102 [label="NeighbourhoodName_Mount Pleasant West (104) <= 0.5\nentropy = 0.31\nsamples = 72\nvalue = [68, 4]"] ;
101 -> 102 ;
103 [label="Bike_Speed <= 1.5\nentropy = 0.189\nsamples = 69\nvalue = [67, 2]"] ;
102 -> 103 ;
104 [label="entropy = 0.863\nsamples = 7\nvalue = [5, 2]"] ;
103 -> 104 ;
105 [label="entropy = 0.0\nsamples = 62\nvalue = [62, 0]"] ;
103 -> 105 ;
106 [label="entropy = 0.918\nsamples = 3\nvalue = [1, 2]"] ;
102 -> 106 ;
107 [label="NeighbourhoodName_St.Andrew-Windfields (40) <= 0.5\nentropy = 0.061\nsamples = 6908\nvalue = [6859, 49]"] ;
101 -> 107 ;
108 [label="Bike_Speed <= 11.5\nentropy = 0.059\nsamples = 6893\nvalue = [6846, 47]"] ;
107 -> 108 ;
109 [label="NeighbourhoodName_Guildwood (140) <= 0.5\nentropy = 0.038\nsamples = 2922\nvalue = [2910, 12]"] ;
108 -> 109 ;
110 [label="Report_Lag <= 3.5\nentropy = 0.036\nsamples = 2921\nvalue = [2910, 11]"] ;
109 -> 110 ;
111 [label="entropy = 0.02\nsamples = 2131\nvalue = [2127, 4]"] ;
110 -> 111 ;
112 [label="entropy = 0.073\nsamples = 790\nvalue = [783, 7]"] ;
110 -> 112 ;
113 [label="entropy = 0.0\nsamples = 1\nvalue = [0, 1]"] ;
109 -> 113 ;
114 [label="Report_Year <= 2018.5\nentropy = 0.073\nsamples = 3971\nvalue = [3936, 35]"] ;
108 -> 114 ;
115 [label="Location_Type_Bar / Restaurant <= 0.5\nentropy = 0.09\nsamples = 2794\nvalue = [2762, 32]"] ;
114 -> 115 ;
116 [label="entropy = 0.083\nsamples = 2726\nvalue = [2698, 28]"] ;
115 -> 116 ;
117 [label="entropy = 0.323\nsamples = 68\nvalue = [64, 4]"] ;
115 -> 117 ;
118 [label="Occurrence_DayOfWeek_Sunday <= 0.5\nentropy = 0.026\nsamples = 1177\nvalue = [1174, 3]"] ;
114 -> 118 ;
119 [label="entropy = 0.0\nsamples = 987\nvalue = [987, 0]"] ;
118 -> 119 ;
120 [label="entropy = 0.117\nsamples = 190\nvalue = [187, 3]"] ;
118 -> 120 ;
121 [label="entropy = 0.567\nsamples = 15\nvalue = [13, 2]"] ;
107 -> 121 ;
122 [label="Report_Year <= 2018.5\nentropy = 0.136\nsamples = 1210\nvalue = [1187, 23]"] ;
100 -> 122 ;
123 [label="Location_Type_Public Transit Hub <= 0.5\nentropy = 0.179\nsamples = 850\nvalue = [827, 23]"] ;
122 -> 123 ;
124 [label="Report_DayOfYear <= 159.5\nentropy = 0.158\nsamples = 826\nvalue = [807, 19]"] ;
123 -> 124 ;
125 [label="Report_DayOfYear <= 144.5\nentropy = 0.296\nsamples = 210\nvalue = [199, 11]"] ;
124 -> 125 ;
126 [label="NeighbourhoodName_Weston-Pellam Park (91) <= 0.5\nentropy = 0.101\nsamples = 153\nvalue = [151, 2]"] ;
125 -> 126 ;
127 [label="entropy = 0.057\nsamples = 152\nvalue = [151, 1]"] ;
126 -> 127 ;
128 [label="entropy = 0.0\nsamples = 1\nvalue = [0, 1]"] ;
126 -> 128 ;
129 [label="Report_DayOfMonth <= 7.5\nentropy = 0.629\nsamples = 57\nvalue = [48, 9]"] ;
125 -> 129 ;
130 [label="entropy = 0.0\nsamples = 19\nvalue = [19, 0]"] ;
129 -> 130 ;
131 [label="entropy = 0.79\nsamples = 38\nvalue = [29, 9]"] ;
129 -> 131 ;
132 [label="Occurrence_DayOfMonth <= 7.5\nentropy = 0.1\nsamples = 616\nvalue = [608, 8]"] ;
124 -> 132 ;
133 [label="NeighbourhoodName_Mount Pleasant West (104) <= 0.5\nentropy = 0.315\nsamples = 123\nvalue = [116, 7]"] ;
132 -> 133 ;
134 [label="entropy = 0.248\nsamples = 121\nvalue = [116, 5]"] ;
133 -> 134 ;
135 [label="entropy = 0.0\nsamples = 2\nvalue = [0, 2]"] ;
133 -> 135 ;
136 [label="NeighbourhoodName_Bayview Village (52) <= 0.5\nentropy = 0.021\nsamples = 493\nvalue = [492, 1]"] ;
132 -> 136 ;
137 [label="entropy = 0.0\nsamples = 487\nvalue = [487, 0]"] ;
136 -> 137 ;
138 [label="entropy = 0.65\nsamples = 6\nvalue = [5, 1]"] ;
136 -> 138 ;
139 [label="Report_Lag <= 0.5\nentropy = 0.65\nsamples = 24\nvalue = [20, 4]"] ;
123 -> 139 ;
140 [label="entropy = 0.971\nsamples = 10\nvalue = [6, 4]"] ;
139 -> 140 ;
141 [label="entropy = 0.0\nsamples = 14\nvalue = [14, 0]"] ;
139 -> 141 ;
142 [label="entropy = 0.0\nsamples = 360\nvalue = [360, 0]"] ;
122 -> 142 ;
143 [label="NeighbourhoodName_Niagara (82) <= 0.5\nentropy = 0.181\nsamples = 550\nvalue = [535, 15]"] ;
99 -> 143 ;
144 [label="NeighbourhoodName_Greenwood-Coxwell (65) <= 0.5\nentropy = 0.115\nsamples = 520\nvalue = [512, 8]"] ;
143 -> 144 ;
145 [label="NeighbourhoodName_Trinity-Bellwoods (81) <= 0.5\nentropy = 0.092\nsamples = 515\nvalue = [509, 6]"] ;
144 -> 145 ;
146 [label="NeighbourhoodName_West Hill (136) <= 0.5\nentropy = 0.067\nsamples = 504\nvalue = [500, 4]"] ;
145 -> 146 ;
147 [label="NeighbourhoodName_Englemount-Lawrence (32) <= 0.5\nentropy = 0.053\nsamples = 502\nvalue = [499, 3]"] ;
146 -> 147 ;
148 [label="Bike_Type_EL <= 0.5\nentropy = 0.038\nsamples = 499\nvalue = [497, 2]"] ;
147 -> 148 ;
149 [label="entropy = 0.0\nsamples = 442\nvalue = [442, 0]"] ;
148 -> 149 ;
150 [label="entropy = 0.219\nsamples = 57\nvalue = [55, 2]"] ;
148 -> 150 ;
151 [label="entropy = 0.918\nsamples = 3\nvalue = [2, 1]"] ;
147 -> 151 ;
152 [label="entropy = 1.0\nsamples = 2\nvalue = [1, 1]"] ;
146 -> 152 ;
153 [label="entropy = 0.684\nsamples = 11\nvalue = [9, 2]"] ;
145 -> 153 ;
154 [label="entropy = 0.971\nsamples = 5\nvalue = [3, 2]"] ;
144 -> 154 ;
155 [label="Report_Lag <= 130.0\nentropy = 0.784\nsamples = 30\nvalue = [23, 7]"] ;
143 -> 155 ;
156 [label="Bike_Type_RG <= 0.5\nentropy = 0.677\nsamples = 28\nvalue = [23, 5]"] ;
155 -> 156 ;
157 [label="entropy = 0.896\nsamples = 16\nvalue = [11, 5]"] ;
156 -> 157 ;
158 [label="entropy = 0.0\nsamples = 12\nvalue = [12, 0]"] ;
156 -> 158 ;
159 [label="entropy = 0.0\nsamples = 2\nvalue = [0, 2]"] ;
155 -> 159 ;
160 [label="Report_DayOfMonth <= 7.5\nentropy = 0.926\nsamples = 88\nvalue = [30, 58]"] ;
0 -> 160 [labeldistance=2.5, labelangle=-45, headlabel="False"] ;
161 [label="entropy = 0.0\nsamples = 19\nvalue = [0, 19]"] ;
160 -> 161 ;
162 [label="Cost_of_Bike <= 350.0\nentropy = 0.988\nsamples = 69\nvalue = [30, 39]"] ;
160 -> 162 ;
163 [label="entropy = 0.0\nsamples = 10\nvalue = [10, 0]"] ;
162 -> 163 ;
164 [label="Bike_Type_MT <= 0.5\nentropy = 0.924\nsamples = 59\nvalue = [20, 39]"] ;
162 -> 164 ;
165 [label="Bike_Type_RG <= 0.5\nentropy = 0.997\nsamples = 30\nvalue = [16, 14]"] ;
164 -> 165 ;
166 [label="Bike_Colour_WHI <= 0.5\nentropy = 0.918\nsamples = 24\nvalue = [16, 8]"] ;
165 -> 166 ;
167 [label="Report_Hour <= 1.0\nentropy = 0.792\nsamples = 21\nvalue = [16, 5]"] ;
166 -> 167 ;
168 [label="entropy = 0.0\nsamples = 2\nvalue = [0, 2]"] ;
167 -> 168 ;
169 [label="entropy = 0.629\nsamples = 19\nvalue = [16, 3]"] ;
167 -> 169 ;
170 [label="entropy = 0.0\nsamples = 3\nvalue = [0, 3]"] ;
166 -> 170 ;
171 [label="entropy = 0.0\nsamples = 6\nvalue = [0, 6]"] ;
165 -> 171 ;
172 [label="Report_Hour <= 19.0\nentropy = 0.579\nsamples = 29\nvalue = [4, 25]"] ;
164 -> 172 ;
173 [label="Location_Type_Parking Lots (Apt., Commercial Or Non-Commercial) <= 0.5\nentropy = 0.242\nsamples = 25\nvalue = [1, 24]"] ;
172 -> 173 ;
174 [label="entropy = 0.0\nsamples = 24\nvalue = [0, 24]"] ;
173 -> 174 ;
175 [label="entropy = 0.0\nsamples = 1\nvalue = [1, 0]"] ;
173 -> 175 ;
176 [label="entropy = 0.811\nsamples = 4\nvalue = [3, 1]"] ;
172 -> 176 ;
}