digraph Tree {
node [shape=box] ;
0 [label="Primary_Offence_PROPERTY <= 0.5\nentropy = 0.098\nsamples = 20092\nvalue = [19838, 254]"] ;
1 [label="Cost_of_Bike <= 949.271\nentropy = 0.08\nsamples = 20006\nvalue = [19808, 198]"] ;
0 -> 1 [labeldistance=2.5, labelangle=45, headlabel="True"] ;
2 [label="Report_DayOfYear <= 151.5\nentropy = 0.059\nsamples = 13067\nvalue = [12978, 89]"] ;
1 -> 2 ;
3 [label="Report_Lag <= 0.5\nentropy = 0.096\nsamples = 2923\nvalue = [2887, 36]"] ;
2 -> 3 ;
4 [label="Report_Hour <= 9.5\nentropy = 0.157\nsamples = 917\nvalue = [896, 21]"] ;
3 -> 4 ;
5 [label="entropy = 0.459\nsamples = 62\nvalue = [56, 6]"] ;
4 -> 5 ;
6 [label="entropy = 0.127\nsamples = 855\nvalue = [840, 15]"] ;
4 -> 6 ;
7 [label="Occurrence_Hour <= 10.5\nentropy = 0.064\nsamples = 2006\nvalue = [1991, 15]"] ;
3 -> 7 ;
8 [label="entropy = 0.0\nsamples = 529\nvalue = [529, 0]"] ;
7 -> 8 ;
9 [label="entropy = 0.082\nsamples = 1477\nvalue = [1462, 15]"] ;
7 -> 9 ;
10 [label="Report_Lag <= 1.5\nentropy = 0.047\nsamples = 10144\nvalue = [10091, 53]"] ;
2 -> 10 ;
11 [label="Primary_Offence_ROBBERY <= 0.5\nentropy = 0.058\nsamples = 5918\nvalue = [5878, 40]"] ;
10 -> 11 ;
12 [label="entropy = 0.056\nsamples = 5892\nvalue = [5854, 38]"] ;
11 -> 12 ;
13 [label="entropy = 0.391\nsamples = 26\nvalue = [24, 2]"] ;
11 -> 13 ;
14 [label="Bike_Type_OT <= 0.5\nentropy = 0.03\nsamples = 4226\nvalue = [4213, 13]"] ;
10 -> 14 ;
15 [label="entropy = 0.018\nsamples = 3539\nvalue = [3533, 6]"] ;
14 -> 15 ;
16 [label="entropy = 0.082\nsamples = 687\nvalue = [680, 7]"] ;
14 -> 16 ;
17 [label="Cost_of_Bike <= 949.771\nentropy = 0.117\nsamples = 6939\nvalue = [6830, 109]"] ;
1 -> 17 ;
18 [label="Report_Lag <= 0.5\nentropy = 0.264\nsamples = 1073\nvalue = [1025, 48]"] ;
17 -> 18 ;
19 [label="Primary_Offence_THEFT <= 0.5\nentropy = 0.418\nsamples = 402\nvalue = [368, 34]"] ;
18 -> 19 ;
20 [label="entropy = 0.616\nsamples = 105\nvalue = [89, 16]"] ;
19 -> 20 ;
21 [label="entropy = 0.33\nsamples = 297\nvalue = [279, 18]"] ;
19 -> 21 ;
22 [label="Primary_Offence_DRUG <= 0.5\nentropy = 0.146\nsamples = 671\nvalue = [657, 14]"] ;
18 -> 22 ;
23 [label="entropy = 0.138\nsamples = 670\nvalue = [657, 13]"] ;
22 -> 23 ;
24 [label="entropy = 0.0\nsamples = 1\nvalue = [0, 1]"] ;
22 -> 24 ;
25 [label="Report_Lag <= 9.5\nentropy = 0.083\nsamples = 5866\nvalue = [5805, 61]"] ;
17 -> 25 ;
26 [label="Occurrence_DayOfYear <= 112.5\nentropy = 0.092\nsamples = 4977\nvalue = [4919, 58]"] ;
25 -> 26 ;
27 [label="entropy = 0.154\nsamples = 675\nvalue = [660, 15]"] ;
26 -> 27 ;
28 [label="entropy = 0.081\nsamples = 4302\nvalue = [4259, 43]"] ;
26 -> 28 ;
29 [label="Location_Type_Apartment (Rooming House, Condo) <= 0.5\nentropy = 0.033\nsamples = 889\nvalue = [886, 3]"] ;
25 -> 29 ;
30 [label="entropy = 0.0\nsamples = 542\nvalue = [542, 0]"] ;
29 -> 30 ;
31 [label="entropy = 0.072\nsamples = 347\nvalue = [344, 3]"] ;
29 -> 31 ;
32 [label="Cost_of_Bike <= 550.0\nentropy = 0.933\nsamples = 86\nvalue = [30, 56]"] ;
0 -> 32 [labeldistance=2.5, labelangle=-45, headlabel="False"] ;
33 [label="entropy = 0.592\nsamples = 14\nvalue = [12, 2]"] ;
32 -> 33 ;
34 [label="Location_Type_Open Areas (Lakes, Parks, Rivers) <= 0.5\nentropy = 0.811\nsamples = 72\nvalue = [18, 54]"] ;
32 -> 34 ;
35 [label="Occurrence_Month_April <= 0.5\nentropy = 0.71\nsamples = 67\nvalue = [13, 54]"] ;
34 -> 35 ;
36 [label="Report_Hour <= 11.5\nentropy = 0.656\nsamples = 65\nvalue = [11, 54]"] ;
35 -> 36 ;
37 [label="entropy = 0.0\nsamples = 16\nvalue = [0, 16]"] ;
36 -> 37 ;
38 [label="entropy = 0.768\nsamples = 49\nvalue = [11, 38]"] ;
36 -> 38 ;
39 [label="entropy = 0.0\nsamples = 2\nvalue = [2, 0]"] ;
35 -> 39 ;
40 [label="entropy = 0.0\nsamples = 5\nvalue = [5, 0]"] ;
34 -> 40 ;
}