digraph Tree {
node [shape=box] ;
0 [label="Primary_Offence_THEFT <= 0.5\nentropy = 1.0\nsamples = 35498\nvalue = [17749, 17749]"] ;
1 [label="Primary_Offence_B&E <= 0.5\nentropy = 0.507\nsamples = 12108\nvalue = [1359, 10749]"] ;
0 -> 1 [labeldistance=2.5, labelangle=45, headlabel="True"] ;
2 [label="Primary_Offence_ROBBERY <= 0.5\nentropy = 0.125\nsamples = 10853\nvalue = [186, 10667]"] ;
1 -> 2 ;
3 [label="Primary_Offence_FTC <= 0.5\nentropy = 0.097\nsamples = 10760\nvalue = [135, 10625]"] ;
2 -> 3 ;
4 [label="Primary_Offence_MISCHIEF <= 0.5\nentropy = 0.081\nsamples = 10728\nvalue = [107, 10621]"] ;
3 -> 4 ;
5 [label="Primary_Offence_FRAUD <= 0.5\nentropy = 0.065\nsamples = 10700\nvalue = [82, 10618]"] ;
4 -> 5 ;
6 [label="Primary_Offence_INCIDENT <= 0.5\nentropy = 0.055\nsamples = 10685\nvalue = [67, 10618]"] ;
5 -> 6 ;
7 [label="Primary_Offence_ASSAULT <= 0.5\nentropy = 0.048\nsamples = 10675\nvalue = [57, 10618]"] ;
6 -> 7 ;
8 [label="entropy = 0.037\nsamples = 10622\nvalue = [42, 10580]"] ;
7 -> 8 ;
9 [label="entropy = 0.86\nsamples = 53\nvalue = [15, 38]"] ;
7 -> 9 ;
10 [label="entropy = 0.0\nsamples = 10\nvalue = [10, 0]"] ;
6 -> 10 ;
11 [label="entropy = 0.0\nsamples = 15\nvalue = [15, 0]"] ;
5 -> 11 ;
12 [label="Report_Month_March <= 0.5\nentropy = 0.491\nsamples = 28\nvalue = [25, 3]"] ;
4 -> 12 ;
13 [label="Bike_Make_KONA <= 0.5\nentropy = 0.235\nsamples = 26\nvalue = [25, 1]"] ;
12 -> 13 ;
14 [label="entropy = 0.0\nsamples = 25\nvalue = [25, 0]"] ;
13 -> 14 ;
15 [label="entropy = 0.0\nsamples = 1\nvalue = [0, 1]"] ;
13 -> 15 ;
16 [label="entropy = 0.0\nsamples = 2\nvalue = [0, 2]"] ;
12 -> 16 ;
17 [label="Location_Type_Streets, Roads, Highways (Bicycle Path, Private Road) <= 0.5\nentropy = 0.544\nsamples = 32\nvalue = [28, 4]"] ;
3 -> 17 ;
18 [label="NeighbourhoodName_Rosedale-Moore Park (98) <= 0.5\nentropy = 0.242\nsamples = 25\nvalue = [24, 1]"] ;
17 -> 18 ;
19 [label="entropy = 0.0\nsamples = 24\nvalue = [24, 0]"] ;
18 -> 19 ;
20 [label="entropy = 0.0\nsamples = 1\nvalue = [0, 1]"] ;
18 -> 20 ;
21 [label="entropy = 0.985\nsamples = 7\nvalue = [4, 3]"] ;
17 -> 21 ;
22 [label="NeighbourhoodName_Woodbine Corridor (64) <= 0.5\nentropy = 0.993\nsamples = 93\nvalue = [51, 42]"] ;
2 -> 22 ;
23 [label="Occurrence_DayOfWeek_Wednesday <= 0.5\nentropy = 0.31\nsamples = 54\nvalue = [51, 3]"] ;
22 -> 23 ;
24 [label="NeighbourhoodName_Corso Italia-Davenport (92) <= 0.5\nentropy = 0.141\nsamples = 50\nvalue = [49, 1]"] ;
23 -> 24 ;
25 [label="entropy = 0.0\nsamples = 49\nvalue = [49, 0]"] ;
24 -> 25 ;
26 [label="entropy = 0.0\nsamples = 1\nvalue = [0, 1]"] ;
24 -> 26 ;
27 [label="entropy = 1.0\nsamples = 4\nvalue = [2, 2]"] ;
23 -> 27 ;
28 [label="entropy = 0.0\nsamples = 39\nvalue = [0, 39]"] ;
22 -> 28 ;
29 [label="NeighbourhoodName_South Riverdale (70) <= 0.5\nentropy = 0.348\nsamples = 1255\nvalue = [1173, 82]"] ;
1 -> 29 ;
30 [label="Cost_of_Bike <= 49.954\nentropy = 0.222\nsamples = 1179\nvalue = [1137, 42]"] ;
29 -> 30 ;
31 [label="Bike_Colour_GRN <= 0.5\nentropy = 0.966\nsamples = 51\nvalue = [20, 31]"] ;
30 -> 31 ;
32 [label="entropy = 0.0\nsamples = 20\nvalue = [20, 0]"] ;
31 -> 32 ;
33 [label="entropy = 0.0\nsamples = 31\nvalue = [0, 31]"] ;
31 -> 33 ;
34 [label="Bike_Colour_RED <= 0.5\nentropy = 0.079\nsamples = 1128\nvalue = [1117, 11]"] ;
30 -> 34 ;
35 [label="Division <= 31.5\nentropy = 0.057\nsamples = 1068\nvalue = [1061, 7]"] ;
34 -> 35 ;
36 [label="Report_Lag <= 0.5\nentropy = 0.099\nsamples = 543\nvalue = [536, 7]"] ;
35 -> 36 ;
37 [label="Cost_of_Bike <= 247.5\nentropy = 0.22\nsamples = 142\nvalue = [137, 5]"] ;
36 -> 37 ;
38 [label="entropy = 0.722\nsamples = 15\nvalue = [12, 3]"] ;
37 -> 38 ;
39 [label="entropy = 0.117\nsamples = 127\nvalue = [125, 2]"] ;
37 -> 39 ;
40 [label="Location_Type_Public Transit Hub <= 0.5\nentropy = 0.045\nsamples = 401\nvalue = [399, 2]"] ;
36 -> 40 ;
41 [label="entropy = 0.025\nsamples = 397\nvalue = [396, 1]"] ;
40 -> 41 ;
42 [label="entropy = 0.811\nsamples = 4\nvalue = [3, 1]"] ;
40 -> 42 ;
43 [label="entropy = 0.0\nsamples = 525\nvalue = [525, 0]"] ;
35 -> 43 ;
44 [label="NeighbourhoodName_Highland Creek (134) <= 0.5\nentropy = 0.353\nsamples = 60\nvalue = [56, 4]"] ;
34 -> 44 ;
45 [label="Occurrence_Month_November <= 0.5\nentropy = 0.29\nsamples = 59\nvalue = [56, 3]"] ;
44 -> 45 ;
46 [label="NeighbourhoodName_Glenfield-Jane Heights (25) <= 0.5\nentropy = 0.133\nsamples = 54\nvalue = [53, 1]"] ;
45 -> 46 ;
47 [label="entropy = 0.0\nsamples = 53\nvalue = [53, 0]"] ;
46 -> 47 ;
48 [label="entropy = 0.0\nsamples = 1\nvalue = [0, 1]"] ;
46 -> 48 ;
49 [label="entropy = 0.971\nsamples = 5\nvalue = [3, 2]"] ;
45 -> 49 ;
50 [label="entropy = 0.0\nsamples = 1\nvalue = [0, 1]"] ;
44 -> 50 ;
51 [label="Report_Month_March <= 0.5\nentropy = 0.998\nsamples = 76\nvalue = [36, 40]"] ;
29 -> 51 ;
52 [label="entropy = 0.0\nsamples = 36\nvalue = [36, 0]"] ;
51 -> 52 ;
53 [label="entropy = 0.0\nsamples = 40\nvalue = [0, 40]"] ;
51 -> 53 ;
54 [label="Division <= 50.5\nentropy = 0.88\nsamples = 23390\nvalue = [16390, 7000]"] ;
0 -> 54 [labeldistance=2.5, labelangle=-45, headlabel="False"] ;
55 [label="Bike_Type_RG <= 0.5\nentropy = 0.98\nsamples = 13105\nvalue = [7634, 5471]"] ;
54 -> 55 ;
56 [label="Bike_Type_MT <= 0.5\nentropy = 1.0\nsamples = 10630\nvalue = [5376, 5254]"] ;
55 -> 56 ;
57 [label="Bike_Type_OT <= 0.5\nentropy = 0.947\nsamples = 7327\nvalue = [2673, 4654]"] ;
56 -> 57 ;
58 [label="Bike_Type_RC <= 0.5\nentropy = 0.802\nsamples = 6048\nvalue = [1476, 4572]"] ;
57 -> 58 ;
59 [label="Bike_Type_TO <= 0.5\nentropy = 0.637\nsamples = 5407\nvalue = [872, 4535]"] ;
58 -> 59 ;
60 [label="Bike_Type_EL <= 0.5\nentropy = 0.479\nsamples = 5024\nvalue = [519, 4505]"] ;
59 -> 60 ;
61 [label="entropy = 0.336\nsamples = 4801\nvalue = [299, 4502]"] ;
60 -> 61 ;
62 [label="entropy = 0.103\nsamples = 223\nvalue = [220, 3]"] ;
60 -> 62 ;
63 [label="Cost_of_Bike <= 1450.0\nentropy = 0.396\nsamples = 383\nvalue = [353, 30]"] ;
59 -> 63 ;
64 [label="entropy = 0.077\nsamples = 319\nvalue = [316, 3]"] ;
63 -> 64 ;
65 [label="entropy = 0.982\nsamples = 64\nvalue = [37, 27]"] ;
63 -> 65 ;
66 [label="Report_Month_April <= 0.5\nentropy = 0.318\nsamples = 641\nvalue = [604, 37]"] ;
58 -> 66 ;
67 [label="Premises_Type_Other <= 0.5\nentropy = 0.06\nsamples = 576\nvalue = [572, 4]"] ;
66 -> 67 ;
68 [label="entropy = 0.02\nsamples = 525\nvalue = [524, 1]"] ;
67 -> 68 ;
69 [label="entropy = 0.323\nsamples = 51\nvalue = [48, 3]"] ;
67 -> 69 ;
70 [label="Bike_Speed <= 3.5\nentropy = 1.0\nsamples = 65\nvalue = [32, 33]"] ;
66 -> 70 ;
71 [label="entropy = 0.689\nsamples = 38\nvalue = [7, 31]"] ;
70 -> 71 ;
72 [label="entropy = 0.381\nsamples = 27\nvalue = [25, 2]"] ;
70 -> 72 ;
73 [label="Location_Type_Bar / Restaurant <= 0.5\nentropy = 0.344\nsamples = 1279\nvalue = [1197, 82]"] ;
57 -> 73 ;
74 [label="Cost_of_Bike <= 999.5\nentropy = 0.276\nsamples = 1243\nvalue = [1184, 59]"] ;
73 -> 74 ;
75 [label="Occurrence_Hour <= 15.5\nentropy = 0.054\nsamples = 980\nvalue = [974, 6]"] ;
74 -> 75 ;
76 [label="entropy = 0.089\nsamples = 533\nvalue = [527, 6]"] ;
75 -> 76 ;
77 [label="entropy = 0.0\nsamples = 447\nvalue = [447, 0]"] ;
75 -> 77 ;
78 [label="Occurrence_Month_April <= 0.5\nentropy = 0.725\nsamples = 263\nvalue = [210, 53]"] ;
74 -> 78 ;
79 [label="entropy = 0.437\nsamples = 222\nvalue = [202, 20]"] ;
78 -> 79 ;
80 [label="entropy = 0.712\nsamples = 41\nvalue = [8, 33]"] ;
78 -> 80 ;
81 [label="Bike_Colour_RED <= 0.5\nentropy = 0.944\nsamples = 36\nvalue = [13, 23]"] ;
73 -> 81 ;
82 [label="entropy = 0.0\nsamples = 12\nvalue = [12, 0]"] ;
81 -> 82 ;
83 [label="Bike_Speed <= 22.5\nentropy = 0.25\nsamples = 24\nvalue = [1, 23]"] ;
81 -> 83 ;
84 [label="entropy = 0.0\nsamples = 23\nvalue = [0, 23]"] ;
83 -> 84 ;
85 [label="entropy = 0.0\nsamples = 1\nvalue = [1, 0]"] ;
83 -> 85 ;
86 [label="Bike_Colour_BLK <= 0.5\nentropy = 0.684\nsamples = 3303\nvalue = [2703, 600]"] ;
56 -> 86 ;
87 [label="Cost_of_Bike <= 535.0\nentropy = 0.779\nsamples = 2599\nvalue = [2000, 599]"] ;
86 -> 87 ;
88 [label="Cost_of_Bike <= 169.5\nentropy = 0.896\nsamples = 1706\nvalue = [1173, 533]"] ;
87 -> 88 ;
89 [label="NeighbourhoodName_Rouge (131) <= 0.5\nentropy = 0.026\nsamples = 393\nvalue = [392, 1]"] ;
88 -> 89 ;
90 [label="entropy = 0.0\nsamples = 388\nvalue = [388, 0]"] ;
89 -> 90 ;
91 [label="entropy = 0.722\nsamples = 5\nvalue = [4, 1]"] ;
89 -> 91 ;
92 [label="Occurrence_Month_July <= 0.5\nentropy = 0.974\nsamples = 1313\nvalue = [781, 532]"] ;
88 -> 92 ;
93 [label="entropy = 0.996\nsamples = 1144\nvalue = [613, 531]"] ;
92 -> 93 ;
94 [label="entropy = 0.052\nsamples = 169\nvalue = [168, 1]"] ;
92 -> 94 ;
95 [label="Cost_of_Bike <= 944.5\nentropy = 0.38\nsamples = 893\nvalue = [827, 66]"] ;
87 -> 95 ;
96 [label="Occurrence_Hour <= 10.5\nentropy = 0.07\nsamples = 475\nvalue = [471, 4]"] ;
95 -> 96 ;
97 [label="entropy = 0.169\nsamples = 159\nvalue = [155, 4]"] ;
96 -> 97 ;
98 [label="entropy = 0.0\nsamples = 316\nvalue = [316, 0]"] ;
96 -> 98 ;
99 [label="Cost_of_Bike <= 955.0\nentropy = 0.606\nsamples = 418\nvalue = [356, 62]"] ;
95 -> 99 ;
100 [label="entropy = 0.855\nsamples = 200\nvalue = [144, 56]"] ;
99 -> 100 ;
101 [label="entropy = 0.182\nsamples = 218\nvalue = [212, 6]"] ;
99 -> 101 ;
102 [label="Occurrence_Month_November <= 0.5\nentropy = 0.015\nsamples = 704\nvalue = [703, 1]"] ;
86 -> 102 ;
103 [label="entropy = 0.0\nsamples = 678\nvalue = [678, 0]"] ;
102 -> 103 ;
104 [label="NeighbourhoodName_Waterfront Communities-The Island (77) <= 0.5\nentropy = 0.235\nsamples = 26\nvalue = [25, 1]"] ;
102 -> 104 ;
105 [label="entropy = 0.0\nsamples = 24\nvalue = [24, 0]"] ;
104 -> 105 ;
106 [label="entropy = 1.0\nsamples = 2\nvalue = [1, 1]"] ;
104 -> 106 ;
107 [label="Bike_Speed <= 0.5\nentropy = 0.429\nsamples = 2475\nvalue = [2258, 217]"] ;
55 -> 107 ;
108 [label="Cost_of_Bike <= 110.0\nentropy = 0.997\nsamples = 73\nvalue = [34, 39]"] ;
107 -> 108 ;
109 [label="Cost_of_Bike <= 90.0\nentropy = 0.567\nsamples = 45\nvalue = [6, 39]"] ;
108 -> 109 ;
110 [label="entropy = 0.0\nsamples = 4\nvalue = [4, 0]"] ;
109 -> 110 ;
111 [label="Report_Lag <= 5.0\nentropy = 0.281\nsamples = 41\nvalue = [2, 39]"] ;
109 -> 111 ;
112 [label="entropy = 0.0\nsamples = 39\nvalue = [0, 39]"] ;
111 -> 112 ;
113 [label="entropy = 0.0\nsamples = 2\nvalue = [2, 0]"] ;
111 -> 113 ;
114 [label="entropy = 0.0\nsamples = 28\nvalue = [28, 0]"] ;
108 -> 114 ;
115 [label="Location_Type_Apartment (Rooming House, Condo) <= 0.5\nentropy = 0.381\nsamples = 2402\nvalue = [2224, 178]"] ;
107 -> 115 ;
116 [label="Premises_Type_Outside <= 0.5\nentropy = 0.466\nsamples = 1757\nvalue = [1583, 174]"] ;
115 -> 116 ;
117 [label="Bike_Model_UNKNOWN <= 0.5\nentropy = 0.589\nsamples = 1198\nvalue = [1028, 170]"] ;
116 -> 117 ;
118 [label="Bike_Model_KNOWN <= 0.5\nentropy = 0.735\nsamples = 712\nvalue = [565, 147]"] ;
117 -> 118 ;
119 [label="entropy = 0.0\nsamples = 101\nvalue = [0, 101]"] ;
118 -> 119 ;
120 [label="entropy = 0.385\nsamples = 611\nvalue = [565, 46]"] ;
118 -> 120 ;
121 [label="Cost_of_Bike <= 86.213\nentropy = 0.275\nsamples = 486\nvalue = [463, 23]"] ;
117 -> 121 ;
122 [label="entropy = 0.762\nsamples = 77\nvalue = [60, 17]"] ;
121 -> 122 ;
123 [label="entropy = 0.11\nsamples = 409\nvalue = [403, 6]"] ;
121 -> 123 ;
124 [label="Bike_Speed <= 85.0\nentropy = 0.061\nsamples = 559\nvalue = [555, 4]"] ;
116 -> 124 ;
125 [label="Bike_Colour_BLU <= 0.5\nentropy = 0.048\nsamples = 558\nvalue = [555, 3]"] ;
124 -> 125 ;
126 [label="entropy = 0.021\nsamples = 504\nvalue = [503, 1]"] ;
125 -> 126 ;
127 [label="entropy = 0.229\nsamples = 54\nvalue = [52, 2]"] ;
125 -> 127 ;
128 [label="entropy = 0.0\nsamples = 1\nvalue = [0, 1]"] ;
124 -> 128 ;
129 [label="Report_Lag <= 134.5\nentropy = 0.054\nsamples = 645\nvalue = [641, 4]"] ;
115 -> 129 ;
130 [label="Occurrence_Month_May <= 0.5\nentropy = 0.043\nsamples = 638\nvalue = [635, 3]"] ;
129 -> 130 ;
131 [label="Bike_Make_CA <= 0.5\nentropy = 0.019\nsamples = 557\nvalue = [556, 1]"] ;
130 -> 131 ;
132 [label="entropy = 0.0\nsamples = 542\nvalue = [542, 0]"] ;
131 -> 132 ;
133 [label="entropy = 0.353\nsamples = 15\nvalue = [14, 1]"] ;
131 -> 133 ;
134 [label="NeighbourhoodName_Dovercourt-Wallace Emerson-Junction (93) <= 0.5\nentropy = 0.167\nsamples = 81\nvalue = [79, 2]"] ;
130 -> 134 ;
135 [label="entropy = 0.099\nsamples = 78\nvalue = [77, 1]"] ;
134 -> 135 ;
136 [label="entropy = 0.918\nsamples = 3\nvalue = [2, 1]"] ;
134 -> 136 ;
137 [label="entropy = 0.592\nsamples = 7\nvalue = [6, 1]"] ;
129 -> 137 ;
138 [label="Bike_Model_UNKNOWN <= 0.5\nentropy = 0.606\nsamples = 10285\nvalue = [8756, 1529]"] ;
54 -> 138 ;
139 [label="Bike_Model_KNOWN <= 0.5\nentropy = 0.746\nsamples = 6721\nvalue = [5293, 1428]"] ;
138 -> 139 ;
140 [label="entropy = 0.0\nsamples = 518\nvalue = [0, 518]"] ;
139 -> 140 ;
141 [label="Bike_Type_MT <= 0.5\nentropy = 0.602\nsamples = 6203\nvalue = [5293, 910]"] ;
139 -> 141 ;
142 [label="Cost_of_Bike <= 399.5\nentropy = 0.71\nsamples = 4670\nvalue = [3764, 906]"] ;
141 -> 142 ;
143 [label="NeighbourhoodName_Bedford Park-Nortown (39) <= 0.5\nentropy = 0.03\nsamples = 658\nvalue = [656, 2]"] ;
142 -> 143 ;
144 [label="Premises_Type_House <= 0.5\nentropy = 0.016\nsamples = 657\nvalue = [656, 1]"] ;
143 -> 144 ;
145 [label="entropy = 0.0\nsamples = 606\nvalue = [606, 0]"] ;
144 -> 145 ;
146 [label="entropy = 0.139\nsamples = 51\nvalue = [50, 1]"] ;
144 -> 146 ;
147 [label="entropy = 0.0\nsamples = 1\nvalue = [0, 1]"] ;
143 -> 147 ;
148 [label="Occurrence_DayOfWeek_Monday <= 0.5\nentropy = 0.77\nsamples = 4012\nvalue = [3108, 904]"] ;
142 -> 148 ;
149 [label="Occurrence_DayOfWeek_Wednesday <= 0.5\nentropy = 0.822\nsamples = 3518\nvalue = [2615, 903]"] ;
148 -> 149 ;
150 [label="entropy = 0.875\nsamples = 3054\nvalue = [2153, 901]"] ;
149 -> 150 ;
151 [label="entropy = 0.04\nsamples = 464\nvalue = [462, 2]"] ;
149 -> 151 ;
152 [label="Bike_Type_BM <= 0.5\nentropy = 0.021\nsamples = 494\nvalue = [493, 1]"] ;
148 -> 152 ;
153 [label="entropy = 0.0\nsamples = 488\nvalue = [488, 0]"] ;
152 -> 153 ;
154 [label="entropy = 0.65\nsamples = 6\nvalue = [5, 1]"] ;
152 -> 154 ;
155 [label="Bike_Make_CCM <= 0.5\nentropy = 0.026\nsamples = 1533\nvalue = [1529, 4]"] ;
141 -> 155 ;
156 [label="Location_Type_Corrections Facilities <= 0.5\nentropy = 0.015\nsamples = 1510\nvalue = [1508, 2]"] ;
155 -> 156 ;
157 [label="NeighbourhoodName_South Riverdale (70) <= 0.5\nentropy = 0.008\nsamples = 1507\nvalue = [1506, 1]"] ;
156 -> 157 ;
158 [label="entropy = 0.0\nsamples = 1430\nvalue = [1430, 0]"] ;
157 -> 158 ;
159 [label="entropy = 0.1\nsamples = 77\nvalue = [76, 1]"] ;
157 -> 159 ;
160 [label="entropy = 0.918\nsamples = 3\nvalue = [2, 1]"] ;
156 -> 160 ;
161 [label="Report_Month_September <= 0.5\nentropy = 0.426\nsamples = 23\nvalue = [21, 2]"] ;
155 -> 161 ;
162 [label="entropy = 0.0\nsamples = 21\nvalue = [21, 0]"] ;
161 -> 162 ;
163 [label="entropy = 0.0\nsamples = 2\nvalue = [0, 2]"] ;
161 -> 163 ;
164 [label="Cost_of_Bike <= 500.911\nentropy = 0.186\nsamples = 3564\nvalue = [3463, 101]"] ;
138 -> 164 ;
165 [label="Report_Month_December <= 0.5\nentropy = 0.022\nsamples = 1894\nvalue = [1890, 4]"] ;
164 -> 165 ;
166 [label="Bike_Colour_BLU <= 0.5\nentropy = 0.012\nsamples = 1844\nvalue = [1842, 2]"] ;
165 -> 166 ;
167 [label="entropy = 0.0\nsamples = 1645\nvalue = [1645, 0]"] ;
166 -> 167 ;
168 [label="Bike_Make_Other <= 0.5\nentropy = 0.081\nsamples = 199\nvalue = [197, 2]"] ;
166 -> 168 ;
169 [label="entropy = 0.0\nsamples = 169\nvalue = [169, 0]"] ;
168 -> 169 ;
170 [label="Bike_Type_FO <= 0.5\nentropy = 0.353\nsamples = 30\nvalue = [28, 2]"] ;
168 -> 170 ;
171 [label="entropy = 0.216\nsamples = 29\nvalue = [28, 1]"] ;
170 -> 171 ;
172 [label="entropy = 0.0\nsamples = 1\nvalue = [0, 1]"] ;
170 -> 172 ;
173 [label="Report_DayOfWeek_Monday <= 0.5\nentropy = 0.242\nsamples = 50\nvalue = [48, 2]"] ;
165 -> 173 ;
174 [label="entropy = 0.0\nsamples = 37\nvalue = [37, 0]"] ;
173 -> 174 ;
175 [label="entropy = 0.619\nsamples = 13\nvalue = [11, 2]"] ;
173 -> 175 ;
176 [label="NeighbourhoodName_Rosedale-Moore Park (98) <= 0.5\nentropy = 0.32\nsamples = 1670\nvalue = [1573, 97]"] ;
164 -> 176 ;
177 [label="Bike_Type_EL <= 0.5\nentropy = 0.233\nsamples = 1580\nvalue = [1520, 60]"] ;
176 -> 177 ;
178 [label="Report_Lag <= 21.5\nentropy = 0.138\nsamples = 1390\nvalue = [1363, 27]"] ;
177 -> 178 ;
179 [label="Bike_Speed <= 20.5\nentropy = 0.03\nsamples = 1284\nvalue = [1280, 4]"] ;
178 -> 179 ;
180 [label="entropy = 0.0\nsamples = 804\nvalue = [804, 0]"] ;
179 -> 180 ;
181 [label="entropy = 0.07\nsamples = 480\nvalue = [476, 4]"] ;
179 -> 181 ;
182 [label="Cost_of_Bike <= 588.16\nentropy = 0.755\nsamples = 106\nvalue = [83, 23]"] ;
178 -> 182 ;
183 [label="entropy = 0.619\nsamples = 26\nvalue = [4, 22]"] ;
182 -> 183 ;
184 [label="entropy = 0.097\nsamples = 80\nvalue = [79, 1]"] ;
182 -> 184 ;
185 [label="Bike_Speed <= 0.5\nentropy = 0.666\nsamples = 190\nvalue = [157, 33]"] ;
177 -> 185 ;
186 [label="Cost_of_Bike <= 975.0\nentropy = 0.996\nsamples = 56\nvalue = [26, 30]"] ;
185 -> 186 ;
187 [label="entropy = 0.7\nsamples = 37\nvalue = [7, 30]"] ;
186 -> 187 ;
188 [label="entropy = 0.0\nsamples = 19\nvalue = [19, 0]"] ;
186 -> 188 ;
189 [label="Bike_Colour_Unknown Colour <= 0.5\nentropy = 0.155\nsamples = 134\nvalue = [131, 3]"] ;
185 -> 189 ;
190 [label="entropy = 0.0\nsamples = 110\nvalue = [110, 0]"] ;
189 -> 190 ;
191 [label="entropy = 0.544\nsamples = 24\nvalue = [21, 3]"] ;
189 -> 191 ;
192 [label="Occurrence_Month_May <= 0.5\nentropy = 0.977\nsamples = 90\nvalue = [53, 37]"] ;
176 -> 192 ;
193 [label="entropy = 0.0\nsamples = 53\nvalue = [53, 0]"] ;
192 -> 193 ;
194 [label="entropy = 0.0\nsamples = 37\nvalue = [0, 37]"] ;
192 -> 194 ;
}