digraph Tree {
node [shape=box] ;
0 [label="16 <= 0.5\nentropy = 1.0\nsamples = 35486\nvalue = [17743, 17743]"] ;
1 [label="7 <= 0.5\nentropy = 0.485\nsamples = 12733\nvalue = [1337, 11396]"] ;
0 -> 1 [labeldistance=2.5, labelangle=45, headlabel="True"] ;
2 [label="262 <= 0.5\nentropy = 0.118\nsamples = 11440\nvalue = [183, 11257]"] ;
1 -> 2 ;
3 [label="200 <= 0.5\nentropy = 0.069\nsamples = 9931\nvalue = [82, 9849]"] ;
2 -> 3 ;
4 [label="53 <= 0.5\nentropy = 0.056\nsamples = 9881\nvalue = [64, 9817]"] ;
3 -> 4 ;
5 [label="39 <= 0.5\nentropy = 0.047\nsamples = 9853\nvalue = [51, 9802]"] ;
4 -> 5 ;
6 [label="219 <= 0.5\nentropy = 0.043\nsamples = 9848\nvalue = [46, 9802]"] ;
5 -> 6 ;
7 [label="264 <= 0.5\nentropy = 0.039\nsamples = 9842\nvalue = [41, 9801]"] ;
6 -> 7 ;
8 [label="entropy = 0.037\nsamples = 9839\nvalue = [38, 9801]"] ;
7 -> 8 ;
9 [label="entropy = 0.0\nsamples = 3\nvalue = [3, 0]"] ;
7 -> 9 ;
10 [label="entropy = 0.65\nsamples = 6\nvalue = [5, 1]"] ;
6 -> 10 ;
11 [label="entropy = 0.0\nsamples = 5\nvalue = [5, 0]"] ;
5 -> 11 ;
12 [label="3 <= 8.5\nentropy = 0.996\nsamples = 28\nvalue = [13, 15]"] ;
4 -> 12 ;
13 [label="entropy = 0.742\nsamples = 19\nvalue = [4, 15]"] ;
12 -> 13 ;
14 [label="entropy = 0.0\nsamples = 9\nvalue = [9, 0]"] ;
12 -> 14 ;
15 [label="266 <= 0.5\nentropy = 0.943\nsamples = 50\nvalue = [18, 32]"] ;
3 -> 15 ;
16 [label="entropy = 0.0\nsamples = 17\nvalue = [17, 0]"] ;
15 -> 16 ;
17 [label="276 <= 0.5\nentropy = 0.196\nsamples = 33\nvalue = [1, 32]"] ;
15 -> 17 ;
18 [label="entropy = 0.0\nsamples = 32\nvalue = [0, 32]"] ;
17 -> 18 ;
19 [label="entropy = 0.0\nsamples = 1\nvalue = [1, 0]"] ;
17 -> 19 ;
20 [label="259 <= 0.5\nentropy = 0.354\nsamples = 1509\nvalue = [101, 1408]"] ;
2 -> 20 ;
21 [label="24 <= 0.5\nentropy = 0.302\nsamples = 1486\nvalue = [80, 1406]"] ;
20 -> 21 ;
22 [label="49 <= 0.5\nentropy = 0.259\nsamples = 1466\nvalue = [64, 1402]"] ;
21 -> 22 ;
23 [label="218 <= 0.5\nentropy = 0.22\nsamples = 1450\nvalue = [51, 1399]"] ;
22 -> 23 ;
24 [label="37 <= 0.5\nentropy = 0.19\nsamples = 1441\nvalue = [42, 1399]"] ;
23 -> 24 ;
25 [label="entropy = 0.158\nsamples = 1430\nvalue = [33, 1397]"] ;
24 -> 25 ;
26 [label="entropy = 0.684\nsamples = 11\nvalue = [9, 2]"] ;
24 -> 26 ;
27 [label="entropy = 0.0\nsamples = 9\nvalue = [9, 0]"] ;
23 -> 27 ;
28 [label="entropy = 0.696\nsamples = 16\nvalue = [13, 3]"] ;
22 -> 28 ;
29 [label="14 <= 0.5\nentropy = 0.722\nsamples = 20\nvalue = [16, 4]"] ;
21 -> 29 ;
30 [label="entropy = 0.353\nsamples = 15\nvalue = [14, 1]"] ;
29 -> 30 ;
31 [label="entropy = 0.971\nsamples = 5\nvalue = [2, 3]"] ;
29 -> 31 ;
32 [label="276 <= 0.5\nentropy = 0.426\nsamples = 23\nvalue = [21, 2]"] ;
20 -> 32 ;
33 [label="entropy = 0.0\nsamples = 18\nvalue = [18, 0]"] ;
32 -> 33 ;
34 [label="entropy = 0.971\nsamples = 5\nvalue = [3, 2]"] ;
32 -> 34 ;
35 [label="262 <= 0.5\nentropy = 0.492\nsamples = 1293\nvalue = [1154, 139]"] ;
1 -> 35 ;
36 [label="5 <= 2.5\nentropy = 0.667\nsamples = 776\nvalue = [641, 135]"] ;
35 -> 36 ;
37 [label="213 <= 0.5\nentropy = 0.842\nsamples = 492\nvalue = [359, 133]"] ;
36 -> 37 ;
38 [label="217 <= 0.5\nentropy = 0.959\nsamples = 343\nvalue = [212, 131]"] ;
37 -> 38 ;
39 [label="0 <= 12.5\nentropy = 0.997\nsamples = 244\nvalue = [114, 130]"] ;
38 -> 39 ;
40 [label="4 <= 49.774\nentropy = 0.677\nsamples = 84\nvalue = [69, 15]"] ;
39 -> 40 ;
41 [label="entropy = 0.0\nsamples = 14\nvalue = [0, 14]"] ;
40 -> 41 ;
42 [label="entropy = 0.108\nsamples = 70\nvalue = [69, 1]"] ;
40 -> 42 ;
43 [label="0 <= 17.5\nentropy = 0.857\nsamples = 160\nvalue = [45, 115]"] ;
39 -> 43 ;
44 [label="entropy = 0.498\nsamples = 128\nvalue = [14, 114]"] ;
43 -> 44 ;
45 [label="entropy = 0.201\nsamples = 32\nvalue = [31, 1]"] ;
43 -> 45 ;
46 [label="273 <= 0.5\nentropy = 0.081\nsamples = 99\nvalue = [98, 1]"] ;
38 -> 46 ;
47 [label="entropy = 0.0\nsamples = 96\nvalue = [96, 0]"] ;
46 -> 47 ;
48 [label="entropy = 0.918\nsamples = 3\nvalue = [2, 1]"] ;
46 -> 48 ;
49 [label="4 <= 247.5\nentropy = 0.103\nsamples = 149\nvalue = [147, 2]"] ;
37 -> 49 ;
50 [label="entropy = 0.619\nsamples = 13\nvalue = [11, 2]"] ;
49 -> 50 ;
51 [label="entropy = 0.0\nsamples = 136\nvalue = [136, 0]"] ;
49 -> 51 ;
52 [label="51 <= 0.5\nentropy = 0.06\nsamples = 284\nvalue = [282, 2]"] ;
36 -> 52 ;
53 [label="entropy = 0.0\nsamples = 215\nvalue = [215, 0]"] ;
52 -> 53 ;
54 [label="211 <= 0.5\nentropy = 0.189\nsamples = 69\nvalue = [67, 2]"] ;
52 -> 54 ;
55 [label="285 <= 0.5\nentropy = 0.112\nsamples = 67\nvalue = [66, 1]"] ;
54 -> 55 ;
56 [label="entropy = 0.0\nsamples = 64\nvalue = [64, 0]"] ;
55 -> 56 ;
57 [label="entropy = 0.918\nsamples = 3\nvalue = [2, 1]"] ;
55 -> 57 ;
58 [label="entropy = 1.0\nsamples = 2\nvalue = [1, 1]"] ;
54 -> 58 ;
59 [label="3 <= 94.5\nentropy = 0.065\nsamples = 517\nvalue = [513, 4]"] ;
35 -> 59 ;
60 [label="3 <= 0.5\nentropy = 0.052\nsamples = 516\nvalue = [513, 3]"] ;
59 -> 60 ;
61 [label="4 <= 40.0\nentropy = 0.145\nsamples = 97\nvalue = [95, 2]"] ;
60 -> 61 ;
62 [label="entropy = 1.0\nsamples = 2\nvalue = [1, 1]"] ;
61 -> 62 ;
63 [label="268 <= 0.5\nentropy = 0.084\nsamples = 95\nvalue = [94, 1]"] ;
61 -> 63 ;
64 [label="entropy = 0.0\nsamples = 89\nvalue = [89, 0]"] ;
63 -> 64 ;
65 [label="entropy = 0.65\nsamples = 6\nvalue = [5, 1]"] ;
63 -> 65 ;
66 [label="273 <= 0.5\nentropy = 0.024\nsamples = 419\nvalue = [418, 1]"] ;
60 -> 66 ;
67 [label="entropy = 0.0\nsamples = 395\nvalue = [395, 0]"] ;
66 -> 67 ;
68 [label="35 <= 0.5\nentropy = 0.25\nsamples = 24\nvalue = [23, 1]"] ;
66 -> 68 ;
69 [label="entropy = 0.0\nsamples = 21\nvalue = [21, 0]"] ;
68 -> 69 ;
70 [label="entropy = 0.918\nsamples = 3\nvalue = [2, 1]"] ;
68 -> 70 ;
71 [label="entropy = 0.0\nsamples = 1\nvalue = [0, 1]"] ;
59 -> 71 ;
72 [label="270 <= 0.5\nentropy = 0.854\nsamples = 22753\nvalue = [16406, 6347]"] ;
0 -> 72 [labeldistance=2.5, labelangle=-45, headlabel="False"] ;
73 [label="266 <= 0.5\nentropy = 0.928\nsamples = 17329\nvalue = [11381, 5948]"] ;
72 -> 73 ;
74 [label="267 <= 0.5\nentropy = 0.996\nsamples = 11331\nvalue = [6083, 5248]"] ;
73 -> 74 ;
75 [label="268 <= 0.5\nentropy = 0.975\nsamples = 8405\nvalue = [3430, 4975]"] ;
74 -> 75 ;
76 [label="273 <= 0.5\nentropy = 0.883\nsamples = 6783\nvalue = [2045, 4738]"] ;
75 -> 76 ;
77 [label="264 <= 0.5\nentropy = 0.721\nsamples = 5901\nvalue = [1178, 4723]"] ;
76 -> 77 ;
78 [label="258 <= 0.5\nentropy = 0.492\nsamples = 5167\nvalue = [555, 4612]"] ;
77 -> 78 ;
79 [label="entropy = 0.438\nsamples = 5070\nvalue = [459, 4611]"] ;
78 -> 79 ;
80 [label="entropy = 0.083\nsamples = 97\nvalue = [96, 1]"] ;
78 -> 80 ;
81 [label="4 <= 952.5\nentropy = 0.613\nsamples = 734\nvalue = [623, 111]"] ;
77 -> 81 ;
82 [label="entropy = 0.894\nsamples = 354\nvalue = [244, 110]"] ;
81 -> 82 ;
83 [label="entropy = 0.026\nsamples = 380\nvalue = [379, 1]"] ;
81 -> 83 ;
84 [label="217 <= 0.5\nentropy = 0.124\nsamples = 882\nvalue = [867, 15]"] ;
76 -> 84 ;
85 [label="218 <= 0.5\nentropy = 0.029\nsamples = 676\nvalue = [674, 2]"] ;
84 -> 85 ;
86 [label="entropy = 0.0\nsamples = 557\nvalue = [557, 0]"] ;
85 -> 86 ;
87 [label="entropy = 0.123\nsamples = 119\nvalue = [117, 2]"] ;
85 -> 87 ;
88 [label="4 <= 999.5\nentropy = 0.34\nsamples = 206\nvalue = [193, 13]"] ;
84 -> 88 ;
89 [label="entropy = 0.0\nsamples = 130\nvalue = [130, 0]"] ;
88 -> 89 ;
90 [label="entropy = 0.66\nsamples = 76\nvalue = [63, 13]"] ;
88 -> 90 ;
91 [label="5 <= 0.5\nentropy = 0.6\nsamples = 1622\nvalue = [1385, 237]"] ;
75 -> 91 ;
92 [label="0 <= 6.5\nentropy = 0.916\nsamples = 701\nvalue = [469, 232]"] ;
91 -> 92 ;
93 [label="4 <= 695.0\nentropy = 0.936\nsamples = 290\nvalue = [102, 188]"] ;
92 -> 93 ;
94 [label="entropy = 0.0\nsamples = 35\nvalue = [35, 0]"] ;
93 -> 94 ;
95 [label="entropy = 0.831\nsamples = 255\nvalue = [67, 188]"] ;
93 -> 95 ;
96 [label="4 <= 695.0\nentropy = 0.491\nsamples = 411\nvalue = [367, 44]"] ;
92 -> 96 ;
97 [label="entropy = 0.0\nsamples = 148\nvalue = [148, 0]"] ;
96 -> 97 ;
98 [label="entropy = 0.651\nsamples = 263\nvalue = [219, 44]"] ;
96 -> 98 ;
99 [label="145 <= 0.5\nentropy = 0.049\nsamples = 921\nvalue = [916, 5]"] ;
91 -> 99 ;
100 [label="5 <= 1.5\nentropy = 0.023\nsamples = 873\nvalue = [871, 2]"] ;
99 -> 100 ;
101 [label="entropy = 0.051\nsamples = 349\nvalue = [347, 2]"] ;
100 -> 101 ;
102 [label="entropy = 0.0\nsamples = 524\nvalue = [524, 0]"] ;
100 -> 102 ;
103 [label="5 <= 65.0\nentropy = 0.337\nsamples = 48\nvalue = [45, 3]"] ;
99 -> 103 ;
104 [label="entropy = 0.159\nsamples = 43\nvalue = [42, 1]"] ;
103 -> 104 ;
105 [label="entropy = 0.971\nsamples = 5\nvalue = [3, 2]"] ;
103 -> 105 ;
106 [label="4 <= 499.5\nentropy = 0.447\nsamples = 2926\nvalue = [2653, 273]"] ;
74 -> 106 ;
107 [label="80 <= 0.5\nentropy = 0.152\nsamples = 866\nvalue = [847, 19]"] ;
106 -> 107 ;
108 [label="0 <= 0.5\nentropy = 0.014\nsamples = 785\nvalue = [784, 1]"] ;
107 -> 108 ;
109 [label="283 <= 0.5\nentropy = 0.162\nsamples = 42\nvalue = [41, 1]"] ;
108 -> 109 ;
110 [label="entropy = 0.0\nsamples = 38\nvalue = [38, 0]"] ;
109 -> 110 ;
111 [label="entropy = 0.811\nsamples = 4\nvalue = [3, 1]"] ;
109 -> 111 ;
112 [label="entropy = 0.0\nsamples = 743\nvalue = [743, 0]"] ;
108 -> 112 ;
113 [label="4 <= 90.0\nentropy = 0.764\nsamples = 81\nvalue = [63, 18]"] ;
107 -> 113 ;
114 [label="249 <= 0.5\nentropy = 0.871\nsamples = 24\nvalue = [7, 17]"] ;
113 -> 114 ;
115 [label="entropy = 0.31\nsamples = 18\nvalue = [1, 17]"] ;
114 -> 115 ;
116 [label="entropy = 0.0\nsamples = 6\nvalue = [6, 0]"] ;
114 -> 116 ;
117 [label="210 <= 0.5\nentropy = 0.127\nsamples = 57\nvalue = [56, 1]"] ;
113 -> 117 ;
118 [label="entropy = 0.0\nsamples = 56\nvalue = [56, 0]"] ;
117 -> 118 ;
119 [label="entropy = 0.0\nsamples = 1\nvalue = [0, 1]"] ;
117 -> 119 ;
120 [label="217 <= 0.5\nentropy = 0.539\nsamples = 2060\nvalue = [1806, 254]"] ;
106 -> 120 ;
121 [label="43 <= 0.5\nentropy = 0.604\nsamples = 1714\nvalue = [1461, 253]"] ;
120 -> 121 ;
122 [label="220 <= 0.5\nentropy = 0.666\nsamples = 1456\nvalue = [1203, 253]"] ;
121 -> 122 ;
123 [label="entropy = 0.737\nsamples = 1210\nvalue = [959, 251]"] ;
122 -> 123 ;
124 [label="entropy = 0.068\nsamples = 246\nvalue = [244, 2]"] ;
122 -> 124 ;
125 [label="entropy = 0.0\nsamples = 258\nvalue = [258, 0]"] ;
121 -> 125 ;
126 [label="29 <= 0.5\nentropy = 0.029\nsamples = 346\nvalue = [345, 1]"] ;
120 -> 126 ;
127 [label="entropy = 0.0\nsamples = 313\nvalue = [313, 0]"] ;
126 -> 127 ;
128 [label="31 <= 0.5\nentropy = 0.196\nsamples = 33\nvalue = [32, 1]"] ;
126 -> 128 ;
129 [label="entropy = 0.0\nsamples = 30\nvalue = [30, 0]"] ;
128 -> 129 ;
130 [label="entropy = 0.918\nsamples = 3\nvalue = [2, 1]"] ;
128 -> 130 ;
131 [label="276 <= 0.5\nentropy = 0.52\nsamples = 5998\nvalue = [5298, 700]"] ;
73 -> 131 ;
132 [label="3 <= 20.5\nentropy = 0.616\nsamples = 4561\nvalue = [3866, 695]"] ;
131 -> 132 ;
133 [label="283 <= 0.5\nentropy = 0.782\nsamples = 2509\nvalue = [1926, 583]"] ;
132 -> 133 ;
134 [label="4 <= 150.077\nentropy = 0.856\nsamples = 2078\nvalue = [1495, 583]"] ;
133 -> 134 ;
135 [label="0 <= 21.5\nentropy = 0.029\nsamples = 339\nvalue = [338, 1]"] ;
134 -> 135 ;
136 [label="entropy = 0.0\nsamples = 300\nvalue = [300, 0]"] ;
135 -> 136 ;
137 [label="entropy = 0.172\nsamples = 39\nvalue = [38, 1]"] ;
135 -> 137 ;
138 [label="4 <= 195.462\nentropy = 0.92\nsamples = 1739\nvalue = [1157, 582]"] ;
134 -> 138 ;
139 [label="entropy = 0.527\nsamples = 235\nvalue = [28, 207]"] ;
138 -> 139 ;
140 [label="entropy = 0.81\nsamples = 1504\nvalue = [1129, 375]"] ;
138 -> 140 ;
141 [label="entropy = 0.0\nsamples = 431\nvalue = [431, 0]"] ;
133 -> 141 ;
142 [label="4 <= 501.5\nentropy = 0.306\nsamples = 2052\nvalue = [1940, 112]"] ;
132 -> 142 ;
143 [label="5 <= 14.5\nentropy = 0.424\nsamples = 1089\nvalue = [995, 94]"] ;
142 -> 143 ;
144 [label="5 <= 0.5\nentropy = 0.328\nsamples = 964\nvalue = [906, 58]"] ;
143 -> 144 ;
145 [label="entropy = 0.607\nsamples = 376\nvalue = [320, 56]"] ;
144 -> 145 ;
146 [label="entropy = 0.033\nsamples = 588\nvalue = [586, 2]"] ;
144 -> 146 ;
147 [label="4 <= 499.5\nentropy = 0.866\nsamples = 125\nvalue = [89, 36]"] ;
143 -> 147 ;
148 [label="entropy = 0.0\nsamples = 65\nvalue = [65, 0]"] ;
147 -> 148 ;
149 [label="entropy = 0.971\nsamples = 60\nvalue = [24, 36]"] ;
147 -> 149 ;
150 [label="0 <= 10.5\nentropy = 0.134\nsamples = 963\nvalue = [945, 18]"] ;
142 -> 150 ;
151 [label="4 <= 1099.5\nentropy = 0.295\nsamples = 307\nvalue = [291, 16]"] ;
150 -> 151 ;
152 [label="entropy = 0.096\nsamples = 242\nvalue = [239, 3]"] ;
151 -> 152 ;
153 [label="entropy = 0.722\nsamples = 65\nvalue = [52, 13]"] ;
151 -> 153 ;
154 [label="0 <= 15.5\nentropy = 0.03\nsamples = 656\nvalue = [654, 2]"] ;
150 -> 154 ;
155 [label="entropy = 0.069\nsamples = 241\nvalue = [239, 2]"] ;
154 -> 155 ;
156 [label="entropy = 0.0\nsamples = 415\nvalue = [415, 0]"] ;
154 -> 156 ;
157 [label="0 <= 10.5\nentropy = 0.033\nsamples = 1437\nvalue = [1432, 5]"] ;
131 -> 157 ;
158 [label="4 <= 799.5\nentropy = 0.089\nsamples = 445\nvalue = [440, 5]"] ;
157 -> 158 ;
159 [label="4 <= 0.5\nentropy = 0.032\nsamples = 304\nvalue = [303, 1]"] ;
158 -> 159 ;
160 [label="entropy = 0.297\nsamples = 19\nvalue = [18, 1]"] ;
159 -> 160 ;
161 [label="entropy = 0.0\nsamples = 285\nvalue = [285, 0]"] ;
159 -> 161 ;
162 [label="178 <= 0.5\nentropy = 0.186\nsamples = 141\nvalue = [137, 4]"] ;
158 -> 162 ;
163 [label="34 <= 0.5\nentropy = 0.15\nsamples = 139\nvalue = [136, 3]"] ;
162 -> 163 ;
164 [label="entropy = 0.072\nsamples = 115\nvalue = [114, 1]"] ;
163 -> 164 ;
165 [label="entropy = 0.414\nsamples = 24\nvalue = [22, 2]"] ;
163 -> 165 ;
166 [label="entropy = 1.0\nsamples = 2\nvalue = [1, 1]"] ;
162 -> 166 ;
167 [label="entropy = 0.0\nsamples = 992\nvalue = [992, 0]"] ;
157 -> 167 ;
168 [label="0 <= 18.5\nentropy = 0.379\nsamples = 5424\nvalue = [5025, 399]"] ;
72 -> 168 ;
169 [label="4 <= 1429.0\nentropy = 0.253\nsamples = 3902\nvalue = [3737, 165]"] ;
168 -> 169 ;
170 [label="3 <= 0.5\nentropy = 0.208\nsamples = 3758\nvalue = [3635, 123]"] ;
169 -> 170 ;
171 [label="4 <= 115.0\nentropy = 0.942\nsamples = 92\nvalue = [59, 33]"] ;
170 -> 171 ;
172 [label="4 <= 95.0\nentropy = 0.75\nsamples = 42\nvalue = [9, 33]"] ;
171 -> 172 ;
173 [label="entropy = 0.0\nsamples = 7\nvalue = [7, 0]"] ;
172 -> 173 ;
174 [label="0 <= 11.5\nentropy = 0.316\nsamples = 35\nvalue = [2, 33]"] ;
172 -> 174 ;
175 [label="entropy = 0.0\nsamples = 33\nvalue = [0, 33]"] ;
174 -> 175 ;
176 [label="entropy = 0.0\nsamples = 2\nvalue = [2, 0]"] ;
174 -> 176 ;
177 [label="entropy = 0.0\nsamples = 50\nvalue = [50, 0]"] ;
171 -> 177 ;
178 [label="4 <= 678.5\nentropy = 0.166\nsamples = 3666\nvalue = [3576, 90]"] ;
170 -> 178 ;
179 [label="262 <= 0.5\nentropy = 0.062\nsamples = 2362\nvalue = [2345, 17]"] ;
178 -> 179 ;
180 [label="280 <= 0.5\nentropy = 0.009\nsamples = 1309\nvalue = [1308, 1]"] ;
179 -> 180 ;
181 [label="entropy = 0.0\nsamples = 1168\nvalue = [1168, 0]"] ;
180 -> 181 ;
182 [label="entropy = 0.061\nsamples = 141\nvalue = [140, 1]"] ;
180 -> 182 ;
183 [label="3 <= 20.5\nentropy = 0.114\nsamples = 1053\nvalue = [1037, 16]"] ;
179 -> 183 ;
184 [label="entropy = 0.036\nsamples = 782\nvalue = [779, 3]"] ;
183 -> 184 ;
185 [label="entropy = 0.278\nsamples = 271\nvalue = [258, 13]"] ;
183 -> 185 ;
186 [label="3 <= 27.5\nentropy = 0.311\nsamples = 1304\nvalue = [1231, 73]"] ;
178 -> 186 ;
187 [label="4 <= 698.145\nentropy = 0.239\nsamples = 1248\nvalue = [1199, 49]"] ;
186 -> 187 ;
188 [label="entropy = 0.993\nsamples = 51\nvalue = [28, 23]"] ;
187 -> 188 ;
189 [label="entropy = 0.151\nsamples = 1197\nvalue = [1171, 26]"] ;
187 -> 189 ;
190 [label="4 <= 925.0\nentropy = 0.985\nsamples = 56\nvalue = [32, 24]"] ;
186 -> 190 ;
191 [label="entropy = 0.0\nsamples = 20\nvalue = [20, 0]"] ;
190 -> 191 ;
192 [label="entropy = 0.918\nsamples = 36\nvalue = [12, 24]"] ;
190 -> 192 ;
193 [label="4 <= 1465.0\nentropy = 0.871\nsamples = 144\nvalue = [102, 42]"] ;
169 -> 193 ;
194 [label="198 <= 0.5\nentropy = 0.165\nsamples = 41\nvalue = [1, 40]"] ;
193 -> 194 ;
195 [label="entropy = 0.0\nsamples = 40\nvalue = [0, 40]"] ;
194 -> 195 ;
196 [label="entropy = 0.0\nsamples = 1\nvalue = [1, 0]"] ;
194 -> 196 ;
197 [label="5 <= 0.5\nentropy = 0.138\nsamples = 103\nvalue = [101, 2]"] ;
193 -> 197 ;
198 [label="213 <= 0.5\nentropy = 0.286\nsamples = 40\nvalue = [38, 2]"] ;
197 -> 198 ;
199 [label="0 <= 0.5\nentropy = 0.176\nsamples = 38\nvalue = [37, 1]"] ;
198 -> 199 ;
200 [label="entropy = 1.0\nsamples = 2\nvalue = [1, 1]"] ;
199 -> 200 ;
201 [label="entropy = 0.0\nsamples = 36\nvalue = [36, 0]"] ;
199 -> 201 ;
202 [label="entropy = 1.0\nsamples = 2\nvalue = [1, 1]"] ;
198 -> 202 ;
203 [label="entropy = 0.0\nsamples = 63\nvalue = [63, 0]"] ;
197 -> 203 ;
204 [label="5 <= 0.5\nentropy = 0.619\nsamples = 1522\nvalue = [1288, 234]"] ;
168 -> 204 ;
205 [label="3 <= 20.5\nentropy = 0.999\nsamples = 308\nvalue = [160, 148]"] ;
204 -> 205 ;
206 [label="entropy = 0.0\nsamples = 96\nvalue = [96, 0]"] ;
205 -> 206 ;
207 [label="4 <= 525.0\nentropy = 0.884\nsamples = 212\nvalue = [64, 148]"] ;
205 -> 207 ;
208 [label="4 <= 489.5\nentropy = 0.665\nsamples = 179\nvalue = [31, 148]"] ;
207 -> 208 ;
209 [label="entropy = 0.0\nsamples = 20\nvalue = [20, 0]"] ;
208 -> 209 ;
210 [label="262 <= 0.5\nentropy = 0.363\nsamples = 159\nvalue = [11, 148]"] ;
208 -> 210 ;
211 [label="entropy = 0.265\nsamples = 155\nvalue = [7, 148]"] ;
210 -> 211 ;
212 [label="entropy = 0.0\nsamples = 4\nvalue = [4, 0]"] ;
210 -> 212 ;
213 [label="entropy = 0.0\nsamples = 33\nvalue = [33, 0]"] ;
207 -> 213 ;
214 [label="5 <= 1.5\nentropy = 0.369\nsamples = 1214\nvalue = [1128, 86]"] ;
204 -> 214 ;
215 [label="4 <= 505.0\nentropy = 0.54\nsamples = 678\nvalue = [594, 84]"] ;
214 -> 215 ;
216 [label="4 <= 499.5\nentropy = 0.752\nsamples = 380\nvalue = [298, 82]"] ;
215 -> 216 ;
217 [label="entropy = 0.0\nsamples = 227\nvalue = [227, 0]"] ;
216 -> 217 ;
218 [label="4 <= 500.011\nentropy = 0.996\nsamples = 153\nvalue = [71, 82]"] ;
216 -> 218 ;
219 [label="entropy = 0.943\nsamples = 111\nvalue = [71, 40]"] ;
218 -> 219 ;
220 [label="entropy = 0.0\nsamples = 42\nvalue = [0, 42]"] ;
218 -> 220 ;
221 [label="33 <= 0.5\nentropy = 0.058\nsamples = 298\nvalue = [296, 2]"] ;
215 -> 221 ;
222 [label="entropy = 0.0\nsamples = 256\nvalue = [256, 0]"] ;
221 -> 222 ;
223 [label="198 <= 0.5\nentropy = 0.276\nsamples = 42\nvalue = [40, 2]"] ;
221 -> 223 ;
224 [label="entropy = 0.0\nsamples = 30\nvalue = [30, 0]"] ;
223 -> 224 ;
225 [label="entropy = 0.65\nsamples = 12\nvalue = [10, 2]"] ;
223 -> 225 ;
226 [label="249 <= 0.5\nentropy = 0.035\nsamples = 536\nvalue = [534, 2]"] ;
214 -> 226 ;
227 [label="entropy = 0.0\nsamples = 384\nvalue = [384, 0]"] ;
226 -> 227 ;
228 [label="5 <= 3.5\nentropy = 0.101\nsamples = 152\nvalue = [150, 2]"] ;
226 -> 228 ;
229 [label="4 <= 580.0\nentropy = 0.187\nsamples = 70\nvalue = [68, 2]"] ;
228 -> 229 ;
230 [label="entropy = 0.0\nsamples = 37\nvalue = [37, 0]"] ;
229 -> 230 ;
231 [label="entropy = 0.33\nsamples = 33\nvalue = [31, 2]"] ;
229 -> 231 ;
232 [label="entropy = 0.0\nsamples = 82\nvalue = [82, 0]"] ;
228 -> 232 ;
}