digraph Tree {
node [shape=box] ;
0 [label="Primary_Offence_PROPERTY <= 0.5\nentropy = 0.093\nsamples = 17963\nvalue = [17750, 213]"] ;
1 [label="Cost_of_Bike <= 949.5\nentropy = 0.073\nsamples = 17883\nvalue = [17724, 159]"] ;
0 -> 1 [labeldistance=2.5, labelangle=45, headlabel="True"] ;
2 [label="Primary_Offence_FTC <= 0.5\nentropy = 0.052\nsamples = 13002\nvalue = [12926, 76]"] ;
1 -> 2 ;
3 [label="NeighbourhoodName_Morningside (135) <= 0.5\nentropy = 0.05\nsamples = 12982\nvalue = [12909, 73]"] ;
2 -> 3 ;
4 [label="Cost_of_Bike <= 48.5\nentropy = 0.049\nsamples = 12975\nvalue = [12904, 71]"] ;
3 -> 4 ;
5 [label="entropy = 0.0\nsamples = 958\nvalue = [958, 0]"] ;
4 -> 5 ;
6 [label="Report_Lag <= 0.5\nentropy = 0.052\nsamples = 12017\nvalue = [11946, 71]"] ;
4 -> 6 ;
7 [label="Bike_Type_BM <= 0.5\nentropy = 0.074\nsamples = 3762\nvalue = [3728, 34]"] ;
6 -> 7 ;
8 [label="Occurrence_Hour <= 21.5\nentropy = 0.066\nsamples = 3690\nvalue = [3661, 29]"] ;
7 -> 8 ;
9 [label="Primary_Offence_WEAPON <= 0.5\nentropy = 0.061\nsamples = 3641\nvalue = [3615, 26]"] ;
8 -> 9 ;
10 [label="Report_DayOfWeek_Sunday <= 0.5\nentropy = 0.059\nsamples = 3639\nvalue = [3614, 25]"] ;
9 -> 10 ;
11 [label="entropy = 0.066\nsamples = 3210\nvalue = [3185, 25]"] ;
10 -> 11 ;
12 [label="entropy = 0.0\nsamples = 429\nvalue = [429, 0]"] ;
10 -> 12 ;
13 [label="entropy = 1.0\nsamples = 2\nvalue = [1, 1]"] ;
9 -> 13 ;
14 [label="Bike_Speed <= 16.5\nentropy = 0.332\nsamples = 49\nvalue = [46, 3]"] ;
8 -> 14 ;
15 [label="entropy = 0.0\nsamples = 30\nvalue = [30, 0]"] ;
14 -> 15 ;
16 [label="entropy = 0.629\nsamples = 19\nvalue = [16, 3]"] ;
14 -> 16 ;
17 [label="NeighbourhoodName_Corso Italia-Davenport (92) <= 0.5\nentropy = 0.364\nsamples = 72\nvalue = [67, 5]"] ;
7 -> 17 ;
18 [label="Cost_of_Bike <= 129.5\nentropy = 0.313\nsamples = 71\nvalue = [67, 4]"] ;
17 -> 18 ;
19 [label="entropy = 0.764\nsamples = 9\nvalue = [7, 2]"] ;
18 -> 19 ;
20 [label="NeighbourhoodName_Humber Summit (21) <= 0.5\nentropy = 0.206\nsamples = 62\nvalue = [60, 2]"] ;
18 -> 20 ;
21 [label="entropy = 0.121\nsamples = 61\nvalue = [60, 1]"] ;
20 -> 21 ;
22 [label="entropy = 0.0\nsamples = 1\nvalue = [0, 1]"] ;
20 -> 22 ;
23 [label="entropy = 0.0\nsamples = 1\nvalue = [0, 1]"] ;
17 -> 23 ;
24 [label="Division <= 32.5\nentropy = 0.041\nsamples = 8255\nvalue = [8218, 37]"] ;
6 -> 24 ;
25 [label="Occurrence_DayOfWeek_Sunday <= 0.5\nentropy = 0.059\nsamples = 3627\nvalue = [3602, 25]"] ;
24 -> 25 ;
26 [label="Location_Type_Bar / Restaurant <= 0.5\nentropy = 0.046\nsamples = 3158\nvalue = [3142, 16]"] ;
25 -> 26 ;
27 [label="Report_Lag <= 383.5\nentropy = 0.041\nsamples = 3124\nvalue = [3110, 14]"] ;
26 -> 27 ;
28 [label="entropy = 0.039\nsamples = 3115\nvalue = [3102, 13]"] ;
27 -> 28 ;
29 [label="entropy = 0.503\nsamples = 9\nvalue = [8, 1]"] ;
27 -> 29 ;
30 [label="Bike_Type_OT <= 0.5\nentropy = 0.323\nsamples = 34\nvalue = [32, 2]"] ;
26 -> 30 ;
31 [label="entropy = 0.0\nsamples = 27\nvalue = [27, 0]"] ;
30 -> 31 ;
32 [label="entropy = 0.863\nsamples = 7\nvalue = [5, 2]"] ;
30 -> 32 ;
33 [label="Report_Lag <= 35.0\nentropy = 0.137\nsamples = 469\nvalue = [460, 9]"] ;
25 -> 33 ;
34 [label="Bike_Speed <= 3.5\nentropy = 0.115\nsamples = 453\nvalue = [446, 7]"] ;
33 -> 34 ;
35 [label="entropy = 0.274\nsamples = 106\nvalue = [101, 5]"] ;
34 -> 35 ;
36 [label="entropy = 0.051\nsamples = 347\nvalue = [345, 2]"] ;
34 -> 36 ;
37 [label="entropy = 0.544\nsamples = 16\nvalue = [14, 2]"] ;
33 -> 37 ;
38 [label="NeighbourhoodName_Bedford Park-Nortown (39) <= 0.5\nentropy = 0.026\nsamples = 4628\nvalue = [4616, 12]"] ;
24 -> 38 ;
39 [label="Cost_of_Bike <= 299.5\nentropy = 0.024\nsamples = 4619\nvalue = [4608, 11]"] ;
38 -> 39 ;
40 [label="entropy = 0.0\nsamples = 1011\nvalue = [1011, 0]"] ;
39 -> 40 ;
41 [label="NeighbourhoodName_Mount Pleasant West (104) <= 0.5\nentropy = 0.03\nsamples = 3608\nvalue = [3597, 11]"] ;
39 -> 41 ;
42 [label="entropy = 0.026\nsamples = 3522\nvalue = [3513, 9]"] ;
41 -> 42 ;
43 [label="entropy = 0.159\nsamples = 86\nvalue = [84, 2]"] ;
41 -> 43 ;
44 [label="entropy = 0.503\nsamples = 9\nvalue = [8, 1]"] ;
38 -> 44 ;
45 [label="entropy = 0.863\nsamples = 7\nvalue = [5, 2]"] ;
3 -> 45 ;
46 [label="Occurrence_Month_April <= 0.5\nentropy = 0.61\nsamples = 20\nvalue = [17, 3]"] ;
2 -> 46 ;
47 [label="entropy = 0.323\nsamples = 17\nvalue = [16, 1]"] ;
46 -> 47 ;
48 [label="entropy = 0.918\nsamples = 3\nvalue = [1, 2]"] ;
46 -> 48 ;
49 [label="Cost_of_Bike <= 952.5\nentropy = 0.124\nsamples = 4881\nvalue = [4798, 83]"] ;
1 -> 49 ;
50 [label="Report_Lag <= 0.5\nentropy = 0.257\nsamples = 1178\nvalue = [1127, 51]"] ;
49 -> 50 ;
51 [label="Primary_Offence_FTC <= 0.5\nentropy = 0.405\nsamples = 433\nvalue = [398, 35]"] ;
50 -> 51 ;
52 [label="NeighbourhoodName_Woodbine Corridor (64) <= 0.5\nentropy = 0.376\nsamples = 426\nvalue = [395, 31]"] ;
51 -> 52 ;
53 [label="Location_Type_Corrections Facilities <= 0.5\nentropy = 0.354\nsamples = 419\nvalue = [391, 28]"] ;
52 -> 53 ;
54 [label="NeighbourhoodName_Malvern (132) <= 0.5\nentropy = 0.345\nsamples = 418\nvalue = [391, 27]"] ;
53 -> 54 ;
55 [label="Occurrence_Hour <= 18.5\nentropy = 0.337\nsamples = 417\nvalue = [391, 26]"] ;
54 -> 55 ;
56 [label="Occurrence_DayOfWeek_Friday <= 0.5\nentropy = 0.373\nsamples = 362\nvalue = [336, 26]"] ;
55 -> 56 ;
57 [label="entropy = 0.317\nsamples = 313\nvalue = [295, 18]"] ;
56 -> 57 ;
58 [label="entropy = 0.642\nsamples = 49\nvalue = [41, 8]"] ;
56 -> 58 ;
59 [label="entropy = 0.0\nsamples = 55\nvalue = [55, 0]"] ;
55 -> 59 ;
60 [label="entropy = 0.0\nsamples = 1\nvalue = [0, 1]"] ;
54 -> 60 ;
61 [label="entropy = 0.0\nsamples = 1\nvalue = [0, 1]"] ;
53 -> 61 ;
62 [label="entropy = 0.985\nsamples = 7\nvalue = [4, 3]"] ;
52 -> 62 ;
63 [label="entropy = 0.985\nsamples = 7\nvalue = [3, 4]"] ;
51 -> 63 ;
64 [label="Bike_Speed <= 23.0\nentropy = 0.15\nsamples = 745\nvalue = [729, 16]"] ;
50 -> 64 ;
65 [label="Primary_Offence_DRUG <= 0.5\nentropy = 0.103\nsamples = 665\nvalue = [656, 9]"] ;
64 -> 65 ;
66 [label="Occurrence_Hour <= 13.5\nentropy = 0.094\nsamples = 664\nvalue = [656, 8]"] ;
65 -> 66 ;
67 [label="entropy = 0.0\nsamples = 267\nvalue = [267, 0]"] ;
66 -> 67 ;
68 [label="NeighbourhoodName_Weston-Pellam Park (91) <= 0.5\nentropy = 0.142\nsamples = 397\nvalue = [389, 8]"] ;
66 -> 68 ;
69 [label="NeighbourhoodName_St.Andrew-Windfields (40) <= 0.5\nentropy = 0.128\nsamples = 396\nvalue = [389, 7]"] ;
68 -> 69 ;
70 [label="Report_Month_April <= 0.5\nentropy = 0.114\nsamples = 394\nvalue = [388, 6]"] ;
69 -> 70 ;
71 [label="entropy = 0.086\nsamples = 372\nvalue = [368, 4]"] ;
70 -> 71 ;
72 [label="entropy = 0.439\nsamples = 22\nvalue = [20, 2]"] ;
70 -> 72 ;
73 [label="entropy = 1.0\nsamples = 2\nvalue = [1, 1]"] ;
69 -> 73 ;
74 [label="entropy = 0.0\nsamples = 1\nvalue = [0, 1]"] ;
68 -> 74 ;
75 [label="entropy = 0.0\nsamples = 1\nvalue = [0, 1]"] ;
65 -> 75 ;
76 [label="Report_Lag <= 16.5\nentropy = 0.428\nsamples = 80\nvalue = [73, 7]"] ;
64 -> 76 ;
77 [label="NeighbourhoodName_Oakwood Village (107) <= 0.5\nentropy = 0.303\nsamples = 74\nvalue = [70, 4]"] ;
76 -> 77 ;
78 [label="NeighbourhoodName_Highland Creek (134) <= 0.5\nentropy = 0.247\nsamples = 73\nvalue = [70, 3]"] ;
77 -> 78 ;
79 [label="Occurrence_Month_May <= 0.5\nentropy = 0.183\nsamples = 72\nvalue = [70, 2]"] ;
78 -> 79 ;
80 [label="entropy = 0.0\nsamples = 59\nvalue = [59, 0]"] ;
79 -> 80 ;
81 [label="entropy = 0.619\nsamples = 13\nvalue = [11, 2]"] ;
79 -> 81 ;
82 [label="entropy = 0.0\nsamples = 1\nvalue = [0, 1]"] ;
78 -> 82 ;
83 [label="entropy = 0.0\nsamples = 1\nvalue = [0, 1]"] ;
77 -> 83 ;
84 [label="entropy = 1.0\nsamples = 6\nvalue = [3, 3]"] ;
76 -> 84 ;
85 [label="NeighbourhoodName_Kingsway South (15) <= 0.5\nentropy = 0.072\nsamples = 3703\nvalue = [3671, 32]"] ;
49 -> 85 ;
86 [label="Report_Month_April <= 0.5\nentropy = 0.066\nsamples = 3692\nvalue = [3663, 29]"] ;
85 -> 86 ;
87 [label="Occurrence_DayOfWeek_Wednesday <= 0.5\nentropy = 0.055\nsamples = 3467\nvalue = [3445, 22]"] ;
86 -> 87 ;
88 [label="Cost_of_Bike <= 1502.0\nentropy = 0.063\nsamples = 2967\nvalue = [2945, 22]"] ;
87 -> 88 ;
89 [label="NeighbourhoodName_Roncesvalles (86) <= 0.5\nentropy = 0.07\nsamples = 2603\nvalue = [2581, 22]"] ;
88 -> 89 ;
90 [label="NeighbourhoodName_Junction Area (90) <= 0.5\nentropy = 0.066\nsamples = 2561\nvalue = [2541, 20]"] ;
89 -> 90 ;
91 [label="NeighbourhoodName_Bay Street Corridor (76) <= 0.5\nentropy = 0.063\nsamples = 2551\nvalue = [2532, 19]"] ;
90 -> 91 ;
92 [label="entropy = 0.056\nsamples = 2351\nvalue = [2336, 15]"] ;
91 -> 92 ;
93 [label="entropy = 0.141\nsamples = 200\nvalue = [196, 4]"] ;
91 -> 93 ;
94 [label="entropy = 0.469\nsamples = 10\nvalue = [9, 1]"] ;
90 -> 94 ;
95 [label="Primary_Offence_THEFT <= 0.5\nentropy = 0.276\nsamples = 42\nvalue = [40, 2]"] ;
89 -> 95 ;
96 [label="entropy = 0.918\nsamples = 6\nvalue = [4, 2]"] ;
95 -> 96 ;
97 [label="entropy = 0.0\nsamples = 36\nvalue = [36, 0]"] ;
95 -> 97 ;
98 [label="entropy = 0.0\nsamples = 364\nvalue = [364, 0]"] ;
88 -> 98 ;
99 [label="entropy = 0.0\nsamples = 500\nvalue = [500, 0]"] ;
87 -> 99 ;
100 [label="NeighbourhoodName_Niagara (82) <= 0.5\nentropy = 0.2\nsamples = 225\nvalue = [218, 7]"] ;
86 -> 100 ;
101 [label="Occurrence_Hour <= 0.5\nentropy = 0.079\nsamples = 205\nvalue = [203, 2]"] ;
100 -> 101 ;
102 [label="entropy = 0.592\nsamples = 14\nvalue = [12, 2]"] ;
101 -> 102 ;
103 [label="entropy = 0.0\nsamples = 191\nvalue = [191, 0]"] ;
101 -> 103 ;
104 [label="Report_DayOfWeek_Sunday <= 0.5\nentropy = 0.811\nsamples = 20\nvalue = [15, 5]"] ;
100 -> 104 ;
105 [label="entropy = 0.65\nsamples = 18\nvalue = [15, 3]"] ;
104 -> 105 ;
106 [label="entropy = 0.0\nsamples = 2\nvalue = [0, 2]"] ;
104 -> 106 ;
107 [label="entropy = 0.845\nsamples = 11\nvalue = [8, 3]"] ;
85 -> 107 ;
108 [label="Cost_of_Bike <= 280.0\nentropy = 0.91\nsamples = 80\nvalue = [26, 54]"] ;
0 -> 108 [labeldistance=2.5, labelangle=-45, headlabel="False"] ;
109 [label="entropy = 0.0\nsamples = 6\nvalue = [6, 0]"] ;
108 -> 109 ;
110 [label="Bike_Type_EL <= 0.5\nentropy = 0.842\nsamples = 74\nvalue = [20, 54]"] ;
108 -> 110 ;
111 [label="Report_Month_April <= 0.5\nentropy = 0.794\nsamples = 71\nvalue = [17, 54]"] ;
110 -> 111 ;
112 [label="NeighbourhoodName_The Beaches (63) <= 0.5\nentropy = 0.755\nsamples = 69\nvalue = [15, 54]"] ;
111 -> 112 ;
113 [label="Bike_Type_OT <= 0.5\nentropy = 0.71\nsamples = 67\nvalue = [13, 54]"] ;
112 -> 113 ;
114 [label="Location_Type_Streets, Roads, Highways (Bicycle Path, Private Road) <= 0.5\nentropy = 0.604\nsamples = 61\nvalue = [9, 52]"] ;
113 -> 114 ;
115 [label="Cost_of_Bike <= 350.0\nentropy = 0.871\nsamples = 24\nvalue = [7, 17]"] ;
114 -> 115 ;
116 [label="entropy = 0.0\nsamples = 2\nvalue = [2, 0]"] ;
115 -> 116 ;
117 [label="Bike_Type_TO <= 0.5\nentropy = 0.773\nsamples = 22\nvalue = [5, 17]"] ;
115 -> 117 ;
118 [label="entropy = 0.503\nsamples = 18\nvalue = [2, 16]"] ;
117 -> 118 ;
119 [label="entropy = 0.811\nsamples = 4\nvalue = [3, 1]"] ;
117 -> 119 ;
120 [label="Report_Lag <= 3.0\nentropy = 0.303\nsamples = 37\nvalue = [2, 35]"] ;
114 -> 120 ;
121 [label="entropy = 0.0\nsamples = 33\nvalue = [0, 33]"] ;
120 -> 121 ;
122 [label="entropy = 1.0\nsamples = 4\nvalue = [2, 2]"] ;
120 -> 122 ;
123 [label="entropy = 0.918\nsamples = 6\nvalue = [4, 2]"] ;
113 -> 123 ;
124 [label="entropy = 0.0\nsamples = 2\nvalue = [2, 0]"] ;
112 -> 124 ;
125 [label="entropy = 0.0\nsamples = 2\nvalue = [2, 0]"] ;
111 -> 125 ;
126 [label="entropy = 0.0\nsamples = 3\nvalue = [3, 0]"] ;
110 -> 126 ;
}